svm_type c_svc
kernel_type rbf
gamma 0.03125
nr_class 2
total_sv 217
rho -11.844930496058909
label 1 0
probA -1.2296801132424164
probB 0.002098604454337081
nr_sv 109 108
SV
32 1:0.112069 4:0.289586 5:0.263922 6:0.123932 7:0.0683883 8:0.183499 9:0.0992806 13:0.151079 15:0.0442857 16:0.108369 18:0.0775862 19:0.109335 23:0.0520685 24:0.27897 25:0.027027 27:0.248571 29:0.339568 31:0.0977587 32:0.0746055 33:0.236289 34:0.2103 35:0.115714 36:0.424848 37:0.0433429 38:0.11588 40:0.148997 41:0.098862 43:0.0705128 46:0.116046 47:0.0199147 48:0.133047 50:0.0417867 52:0.0399429 53:0.494523 54:0.142248 57:0.0716332 58:0.176065 60:0.206259 62:0.0431034 63:0.0398293 64:0.497991 65:0.143472 66:0.0938834 67:0.123209 68:0.137702 69:0.0629471 71:0.0628571 72:0.166089 73:0.207797 76:0.125535 77:0.247863 80:0.0912981 81:0.0827389 
32 1:0.116418 3:0.0497006 4:0.0852941 5:0.226303 8:0.125731 9:0.0688623 10:0.0591716 12:0.125731 13:0.10479 16:0.0747041 19:0.222407 22:0.0877193 23:0.214706 26:0.200397 27:0.128319 31:0.303254 32:0.0386905 33:0.194282 34:0.12426 36:0.399539 39:0.486647 40:0.154303 41:0.135478 42:0.173653 44:0.03003 46:0.0267062 47:0.122807 48:0.275148 50:0.0870871 52:0.164706 53:0.508624 54:0.146199 56:0.208709 57:0.037092 58:0.136113 60:0.169591 64:0.52221 65:0.14881 67:0.127596 69:0.0650888 71:0.19469 73:0.178334 76:0.258824 77:0.085044 
32 1:0.493671 5:0.254651 8:0.390909 13:0.44586 16:0.156832 19:0.153686 26:0.63522 27:0.805556 32:0.081761 34:0.130435 36:0.156068 37:0.190928 40:0.1625 41:0.140404 43:0.301829 45:0.503185 47:0.0848485 52:0.171779 53:0.404377 54:0.606061 58:0.205873 64:0.471638 67:0.5375 68:0.589431 71:0.135802 72:0.142857 73:0.19948 74:0.108974 77:0.176829 79:0.263636 81:0.0889571 
29.486418625005186 1:0.364486 2:0.553571 5:0.194589 6:0.256637 7:0.441358 17:0.52193 19:0.149357 22:0.263158 24:0.443182 25:0.166667 26:0.311728 36:0.492614 38:0.245455 40:0.238532 50:0.27619 52:0.25 53:0.503262 55:0.330189 57:0.229358 58:0.233782 63:0.122807 64:0.228523 66:0.578947 69:0.4 73:0.191676 81:0.129464 
32 5:0.245728 7:0.191176 9:0.0616622 10:0.0933333 12:0.0570292 13:0.187668 14:0.0749665 16:0.0336667 17:0.236737 18:0.0361446 19:0.185089 20:0.0833333 22:0.0795756 23:0.0970745 24:0.13 25:0.0251989 27:0.289614 29:0.0790885 31:0.0911111 32:0.0173797 33:0.176245 34:0.168 35:0.107856 36:0.354644 37:0.0403838 38:0.036 39:0.109479 40:0.242991 41:0.06145 44:0.0268456 46:0.0720961 47:0.0371353 48:0.062 49:0.0494652 50:0.0778523 52:0.037234 53:0.4485 54:0.198939 55:0.140751 56:0.186577 57:0.0667557 58:0.168385 60:0.115385 61:0.0744681 63:0.0185676 64:0.46718 65:0.0668449 67:0.11482 69:0.088 71:0.0585885 73:0.178185 74:0.0456376 75:0.0611702 76:0.0585106 77:0.115538 80:0.0425532 81:0.0192819 
32 4:0.410377 5:0.245979 6:0.13615 10:0.047619 16:0.120238 19:0.574391 22:0.140187 24:0.232143 25:0.088785 29:0.286408 32:0.0625 34:0.1 36:0.226441 38:0.128571 41:0.108255 42:0.281553 46:0.0430622 48:0.442857 49:0.177885 53:0.396687 54:0.46729 57:0.0598086 58:0.223531 59:0.177885 60:0.271028 61:0.528302 63:0.0654206 64:0.503056 73:0.172899 74:0.0829268 76:0.207547 78:0.134615 
32 1:0.0913349 3:0.0389671 4:0.134259 5:0.296684 6:0.0669746 7:0.334112 9:0.107981 10:0.0232558 13:0.328638 16:0.0587209 17:0.274194 18:0.126464 19:0.179287 22:0.207373 23:0.0844907 24:0.226744 30:0.0831409 32:0.0303738 33:0.0765489 34:0.0976744 36:0.423153 40:0.30303 41:0.0533794 43:0.114319 45:0.185446 46:0.041958 47:0.0322581 49:0.172897 50:0.136471 52:0.12963 53:0.554413 55:0.492958 56:0.163529 57:0.0291375 58:0.200878 64:0.509633 65:0.116822 66:0.152074 67:0.400932 68:0.111624 70:0.0928074 71:0.0510441 72:0.107804 73:0.162117 76:0.101852 77:0.133949 81:0.0335648 
19.166686843840203 3:0.0359307 4:0.185897 5:0.277082 7:0.20546 8:0.0457447 9:0.0995671 10:0.0214592 12:0.0914894 13:0.151515 15:0.0663812 17:0.126596 18:0.116631 19:0.210726 23:0.0779915 25:0.0404255 27:0.186296 28:0.157072 31:0.146638 32:0.0280172 33:0.282742 35:0.0578158 36:0.389567 38:0.0579399 40:0.111828 41:0.0985816 42:0.125541 43:0.316631 44:0.021692 46:0.0193548 47:0.0297872 48:0.0997854 50:0.125813 52:0.179487 53:0.436112 54:0.106383 56:0.150759 57:0.0537634 58:0.176184 60:0.0617021 61:0.119658 62:0.0647948 63:0.0595745 64:0.534603 65:0.0538793 66:0.140426 67:0.0924731 69:0.141631 73:0.172301 76:0.0940171 77:0.123667 79:0.185106 
32 4:0.161111 5:0.335524 10:0.11236 13:0.201149 14:0.32 18:0.154286 19:0.233134 23:0.202778 24:0.273876 36:0.725528 41:0.381868 47:0.0769231 53:0.573389 55:0.201149 58:0.1999 59:0.210227 64:0.629807 69:0.123596 72:0.129365 73:0.167135 74:0.0982659 
12.249915614563587 1:0.282609 5:0.243855 7:0.342926 9:0.167883 15:0.21831 19:0.248021 24:0.345745 32:0.0935252 35:0.190141 36:0.499051 41:0.15977 43:0.6875 48:0.164894 53:0.322523 58:0.171823 64:0.42997 65:0.179856 72:0.325674 73:0.193105 74:0.125 77:0.402778 
32 5:0.153532 7:0.794444 8:0.325758 16:0.407258 19:0.296189 26:0.561111 30:0.276923 36:0.462192 42:1 46:0.147541 53:0.410263 58:0.335899 64:0.289248 66:1 68:0.74359 73:0.151075 77:0.446154 79:0.659091 
32 1:0.222433 5:0.279368 7:0.0904491 9:0.087619 10:0.113422 12:0.0403377 13:0.133333 16:0.0954631 17:0.223265 18:0.205323 19:0.213197 26:0.0638836 27:0.0820755 31:0.322936 32:0.0246679 33:0.124661 34:0.15879 35:0.0509434 36:0.463536 37:0.0573511 38:0.0510397 40:0.0984848 41:0.391182 46:0.0170455 47:0.0525328 48:0.0439509 53:0.54033 54:0.0938086 57:0.0710227 58:0.158547 60:0.108818 63:0.0262664 64:0.558719 65:0.0948767 67:0.244318 68:0.181704 69:0.0415879 72:0.131558 73:0.167765 76:0.165725 77:0.0545113 78:0.0531309 79:0.0816135 80:0.0602637 
9.8304433766751789 1:0.345133 5:0.170417 6:0.243697 8:0.358333 9:0.205357 10:0.172414 15:0.264957 16:0.217672 19:0.352606 28:0.619048 34:0.362069 35:0.230769 36:0.24836 41:0.193056 50:0.261261 52:0.237288 53:0.535338 57:0.217391 58:0.117691 60:0.241667 64:0.480523 73:0.205288 74:0.153153 77:0.731092 
32 4:0.188312 5:0.233784 11:0.275641 12:0.413462 18:0.181208 19:0.11538 20:0.411184 23:0.237013 26:0.224444 33:0.851852 36:0.392065 41:0.148504 46:0.0596026 52:0.181818 53:0.471748 54:0.320513 58:0.116647 59:0.246667 64:0.432016 65:0.333333 68:0.311828 69:0.144737 70:0.261438 73:0.19112 79:0.557692 81:0.188312 
26.096951767385416 4:0.0966667 5:0.30517 9:0.0782313 10:0.100671 12:0.0711921 16:0.0847315 17:0.19702 19:0.341528 23:0.121667 27:0.145485 29:0.20068 31:0.114653 33:0.110007 35:0.090301 36:0.197952 40:0.262626 41:0.0767108 47:0.0927152 50:0.0989761 53:0.380077 55:0.119048 56:0.237201 58:0.199937 60:0.288079 63:0.0927152 64:0.466913 71:0.0735786 72:0.077619 73:0.204995 77:0.0963455 
11.267194189182476 5:0.331469 19:0.239587 34:1 36:0.745354 41:0.926667 53:0.397506 57:0.625 58:0.0187336 64:0.324384 71:1 73:0.145262 75:1 
7.3947057625005481 5:0.393319 8:1 11:1 13:1 19:0.344326 36:0.244357 40:0.684211 49:1 52:0.682927 53:0.425222 57:0.657895 58:0.174231 60:0.674419 64:0.39523 65:0.675676 73:0.217571 
32 4:0.146218 5:0.221111 6:0.0486577 7:0.161309 8:0.0360134 9:0.195246 10:0.0337268 12:0.0360134 13:0.0594228 14:0.0949153 17:0.298995 19:0.218797 20:0.105396 22:0.0502513 23:0.184034 24:0.411046 27:0.219697 31:0.0576166 34:0.106239 36:0.40102 37:0.0511299 38:0.0910624 40:0.263514 41:0.116415 45:0.134126 46:0.0304054 47:0.0234506 48:0.117622 50:0.0493197 53:0.48478 55:0.237691 56:0.236395 57:0.105574 58:0.140979 60:0.0971524 63:0.0234506 64:0.503009 65:0.0846024 67:0.0726351 69:0.111298 70:0.0673401 71:0.0740741 72:0.0391357 73:0.158626 76:0.0739496 77:0.0973154 80:0.0537815 81:0.0487395 
32 4:0.262443 5:0.179454 9:0.106977 16:0.115297 17:0.266816 19:0.0773715 21:0.465309 23:0.330317 26:0.155146 29:0.274419 31:0.156012 32:0.0599078 35:0.245455 36:0.303121 40:0.357798 43:0.222973 45:0.367442 47:0.0627803 48:0.106164 50:0.135514 53:0.426621 57:0.172018 58:0.140291 61:0.253394 63:0.0627803 64:0.503216 67:0.197248 69:0.100457 73:0.180023 76:0.199095 
32 3:0.0965116 4:0.162921 5:0.250106 7:0.273946 8:0.238889 9:0.133721 16:0.286932 19:0.265174 25:0.105556 32:0.0747126 34:0.238636 36:0.170664 38:0.153409 46:0.102857 48:0.264205 53:0.342959 54:0.277778 57:0.214286 58:0.151488 64:0.447932 65:0.143678 67:0.245714 69:0.125 73:0.227485 77:0.324022 81:0.0814607 
32 5:0.215906 8:0.068038 9:0.149351 10:0.0320513 12:0.068038 13:0.113636 14:0.543689 18:0.0873786 19:0.253016 20:0.200321 23:0.116242 25:0.0601266 27:0.277955 28:0.233862 29:0.191558 30:0.0571429 36:0.079748 40:0.250804 41:0.0733122 46:0.0289389 49:0.23871 53:0.438337 57:0.200965 58:0.15983 60:0.0917722 64:0.406944 71:0.210863 73:0.210959 77:0.27619 81:0.184713 
32 1:0.283293 3:0.0805825 4:0.069378 5:0.262726 6:0.0692124 9:0.11165 10:0.0480769 18:0.130751 19:0.241834 22:0.0714286 23:0.174641 24:0.117188 25:0.0452381 26:0.0813205 27:0.31295 29:0.286408 31:0.164263 34:0.0504808 35:0.258993 36:0.231478 40:0.250602 41:0.0551587 42:0.140777 46:0.0433735 48:0.111779 52:0.200957 53:0.423028 54:0.238095 57:0.060241 58:0.169952 59:0.178744 60:0.138095 63:0.0666667 64:0.487992 65:0.0603865 66:0.157143 67:0.310843 68:0.115354 73:0.181325 75:0.110048 76:0.105263 77:0.0692124 78:0.0676329 80:0.15311 
32 1:0.170865 2:0.0675381 3:0.0182018 4:0.126362 5:0.226325 6:0.031556 7:0.0521517 8:0.0467391 9:0.100877 10:0.0436681 12:0.0467391 13:0.191886 15:0.0338059 16:0.055131 17:0.452717 18:0.0591457 19:0.213783 21:0.112019 22:0.0652174 23:0.119281 24:0.0532205 26:0.0736689 27:0.0948746 28:0.0801596 31:0.1119 32:0.0426696 33:0.180556 34:0.114629 35:0.0883315 36:0.337866 37:0.0330413 38:0.029476 40:0.198907 41:0.100725 42:0.0635965 44:0.0109769 46:0.0295082 47:0.076087 48:0.12691 49:0.0404814 50:0.0318332 52:0.0915033 53:0.442062 54:0.0543478 55:0.153509 56:0.228869 57:0.0546448 58:0.119241 60:0.0315217 64:0.545439 65:0.0820569 66:0.0717391 68:0.0525934 69:0.0720524 70:0.0436205 71:0.0719738 73:0.176724 75:0.0250545 76:0.0479303 77:0.15778 78:0.0612691 79:0.141848 80:0.0348584 81:0.0315904 
0.72775100233844925 1:0.345133 5:0.231307 6:0.243697 7:0.418129 9:0.205357 10:0.0862069 16:0.217672 19:0.38251 22:0.5 25:0.158333 27:0.371795 36:0.292662 37:0.266962 40:0.226087 53:0.40223 58:0.259394 60:0.483333 64:0.464826 72:0.197337 73:0.138677 
32 4:0.252907 5:0.233802 6:0.084058 9:0.0680473 10:0.0584795 11:0.124277 12:0.0621387 13:0.310651 15:0.090379 16:0.0738304 17:0.171965 18:0.079646 19:0.155273 20:0.182749 21:0.298934 23:0.106105 24:0.142544 25:0.0549133 31:0.39961 32:0.0382353 36:0.257161 38:0.236842 41:0.0669557 44:0.0296736 46:0.0791789 47:0.0404624 52:0.0813953 53:0.464025 55:0.10355 58:0.129517 60:0.16763 61:0.162791 63:0.0809249 64:0.560795 65:0.0735294 69:0.0643275 73:0.198271 76:0.127907 77:0.252174 78:0.164706 
10.590430495374616 1:0.182243 4:0.13242 5:0.218091 7:0.221705 15:0.142202 19:0.172278 26:0.156589 27:0.199541 36:0.375389 37:0.140966 40:0.240741 42:0.2723 43:0.45 46:0.0416667 52:0.255708 53:0.346862 56:0.65566 57:0.115741 58:0.123734 59:0.172093 61:0.255708 64:0.4136 65:0.116279 66:0.298643 68:0.219697 69:0.101382 71:0.100917 73:0.178393 75:0.105023 76:0.200913 
17.906569128699559 2:0.31 5:0.208167 8:0.106436 9:0.118557 13:0.180412 15:0.467337 16:0.255051 18:0.138462 19:0.168013 25:0.0940594 31:0.172559 34:0.318182 35:0.135678 36:0.588616 40:0.395939 41:0.114686 42:0.298969 43:0.738806 45:0.407216 48:0.117424 52:0.28 53:0.398564 57:0.0634518 58:0.244187 60:0.143564 62:0.307692 63:0.138614 64:0.536786 68:0.721393 70:0.40201 71:0.110553 72:0.116429 73:0.173144 74:0.0880829 76:0.22 79:0.430693 
5.3924183181432834 3:0.0648438 5:0.259022 7:0.184755 9:0.179688 16:0.194231 17:0.225379 18:0.105058 19:0.132836 22:0.227273 23:0.139313 27:0.166667 32:0.0503876 33:0.125842 36:0.370647 40:0.301158 41:0.175505 42:0.226562 44:0.0392157 48:0.268269 52:0.10687 53:0.540313 57:0.0482625 58:0.0973386 61:0.21374 64:0.400427 69:0.0846154 73:0.214071 74:0.133333 77:0.110266 81:0.110687 
32 4:0.0933476 5:0.252493 6:0.0621651 7:0.20546 8:0.0460385 9:0.12419 10:0.0215054 12:0.0690578 13:0.113391 14:0.0604099 15:0.0665951 17:0.0637045 18:0.116505 19:0.193785 20:0.0672043 21:0.110336 22:0.0642398 23:0.117489 24:0.104839 26:0.108836 27:0.140172 28:0.0789568 29:0.12743 30:0.0192926 31:0.0734767 32:0.0280172 33:0.106709 34:0.0451613 35:0.145005 36:0.327803 37:0.0325423 38:0.0290323 39:0.176534 40:0.19591 41:0.0992148 42:0.062635 43:0.106109 44:0.0108108 46:0.0290635 47:0.0599572 48:0.125 50:0.0313514 52:0.120172 53:0.460215 54:0.0535332 55:0.113391 56:0.0751351 57:0.040366 58:0.137713 60:0.0931478 63:0.0149893 64:0.480757 65:0.080819 66:0.141328 67:0.0925727 69:0.0236559 70:0.0429646 71:0.094522 72:0.0249847 73:0.198817 74:0.0183784 75:0.0246781 76:0.0944206 77:0.0932476 78:0.12069 79:0.186296 80:0.0343348 81:0.0155579 
32 1:0.220339 4:0.0807799 5:0.23682 12:0.0595568 13:0.0991501 16:0.0707283 18:0.0762712 19:0.246809 31:0.0957049 34:0.117647 35:0.150838 36:0.352661 40:0.292135 41:0.0641736 43:0.1375 46:0.101124 48:0.195378 50:0.0823864 52:0.0779944 53:0.494093 54:0.138504 55:0.1983 57:0.0351124 58:0.197776 60:0.240997 64:0.410959 67:0.241573 68:0.134259 69:0.0616246 71:0.0614525 73:0.214082 75:0.0640669 76:0.122563 77:0.0805556 81:0.04039 
13.120445656260545 3:0.0982249 5:0.227357 6:0.494318 9:0.136095 10:0.115607 11:0.242938 14:0.329412 18:0.317647 19:0.150671 22:0.169492 29:0.349112 30:0.102273 31:0.39499 33:0.563089 35:0.155172 36:0.412394 40:0.453488 43:0.28125 46:0.156977 53:0.370264 55:0.207101 56:0.41369 58:0.118161 64:0.43826 66:0.372881 71:0.126437 73:0.192604 74:0.10119 76:0.251429 
32 3:0.0302368 4:0.0522523 5:0.284092 7:0.173019 8:0.0771993 10:0.0723327 12:0.0385996 15:0.0559567 16:0.04566 17:0.106822 18:0.0981818 19:0.190853 22:0.05386 23:0.131532 26:0.122202 27:0.0785199 30:0.0971223 31:0.123568 32:0.0707804 35:0.0487365 36:0.418775 38:0.0488246 39:0.297101 40:0.0942029 41:0.0415919 42:0.211293 44:0.0182482 46:0.048913 47:0.0502693 48:0.0840868 52:0.100901 53:0.441389 54:0.0897666 56:0.126825 57:0.0226449 58:0.18095 61:0.100901 63:0.100539 64:0.409162 65:0.136116 66:0.236984 69:0.039783 70:0.0722022 71:0.0397112 73:0.186557 74:0.0310219 76:0.0792793 77:0.104317 78:0.15245 79:0.0780969 80:0.0576577 81:0.0261261 
21.430869938409487 1:0.0341506 4:0.101133 5:0.246203 6:0.0505226 7:0.0417031 8:0.0187119 9:0.100789 10:0.0174672 12:0.0187119 13:0.0920245 15:0.0811518 16:0.0441048 17:0.155352 19:0.223437 20:0.0545852 22:0.0261097 23:0.0318221 26:0.0294547 27:0.0759162 31:0.716157 33:0.115656 34:0.0183406 35:0.0706806 36:0.405811 38:0.0235808 40:0.0681818 41:0.181462 42:0.0508326 43:0.0862369 46:0.0236014 47:0.024369 50:0.0508772 53:0.413675 55:0.153374 57:0.0109266 58:0.342669 62:0.0525394 63:0.0365535 64:0.443591 65:0.0656168 68:0.0842044 69:0.0576419 72:0.0609042 73:0.181623 76:0.115083 77:0.075784 
32 2:0.344444 5:0.278491 9:0.132184 10:0.11236 11:0.236264 13:0.402299 15:0.173184 16:0.283708 17:0.326923 19:0.268783 20:0.351124 28:0.406998 31:0.191948 35:0.150838 36:0.638267 38:0.151685 39:0.463277 40:0.293785 53:0.398734 58:0.168068 59:0.210227 61:0.933333 64:0.359482 65:0.142045 67:0.242938 68:0.267035 69:0.247191 72:0.129365 73:0.172431 74:0.0982659 77:0.160221 
32 1:0.216667 5:0.170135 7:0.526703 9:0.256983 10:0.163934 14:0.311111 15:0.168478 16:0.137978 19:0.293477 26:0.372007 31:0.186703 34:0.229508 35:0.440217 36:0.439157 41:0.123886 43:0.266129 46:0.0494505 48:0.127049 50:0.488764 53:0.345831 54:0.26738 55:0.195531 58:0.14495 63:0.149733 64:0.526566 67:0.236264 73:0.211811 76:0.237838 77:0.155914 81:0.0783784 
32 1:0.0866667 2:0.0274945 3:0.0147621 4:0.0643016 5:0.232271 6:0.0514184 7:0.14823 8:0.0762074 9:0.0511338 10:0.0310697 11:0.0381037 12:0.0285778 13:0.0622499 14:0.0248889 16:0.0448291 17:0.184537 18:0.048 19:0.280849 20:0.110963 21:0.0912047 22:0.026584 23:0.0485588 24:0.0432756 25:0.0168365 26:0.0747816 27:0.270186 28:0.195922 29:0.0262339 30:0.0159574 31:0.15165 32:0.00577521 33:0.220795 34:0.111851 35:0.0718722 36:0.276707 37:0.0804444 38:0.0479361 39:0.0728242 40:0.542629 41:0.0410575 43:0.043883 46:0.0079929 47:0.0248117 48:0.103196 49:0.0328743 50:0.0645018 51:0.246222 52:0.086918 53:0.394848 54:0.0664599 56:0.649244 57:0.0388544 58:0.165417 59:0.0164371 60:0.0642446 61:0.0496674 63:0.0434205 64:0.40579 65:0.0777432 67:0.0763766 68:0.214243 69:0.0488238 70:0.0887311 71:0.0292813 72:0.0206525 73:0.22561 74:0.00756228 75:0.0407982 76:0.117073 77:0.0128546 78:0.0124389 79:0.134914 81:0.0192905 
32 1:0.0707804 3:0.0301818 4:0.0521583 5:0.210621 6:0.104129 7:0.0863527 8:0.192652 10:0.0541516 13:0.127273 14:0.203267 15:0.111712 16:0.0911552 17:0.426523 18:0.0980036 19:0.237579 22:0.215054 23:0.131295 25:0.0681004 27:0.0783784 28:0.132256 30:0.0969479 31:0.185018 32:0.0706522 33:0.178614 34:0.0379061 35:0.194595 36:0.421125 37:0.109498 40:0.235081 44:0.0182149 46:0.0488246 47:0.150538 49:0.067029 50:0.0528233 52:0.302158 53:0.376815 54:0.0896057 55:0.127273 56:0.126594 57:0.022604 58:0.147079 63:0.0250896 64:0.454964 67:0.155515 68:0.260323 69:0.0397112 70:0.0720721 71:0.158559 72:0.0418808 73:0.174278 75:0.0413669 76:0.23741 77:0.104129 78:0.0507246 79:0.233871 80:0.057554 
32 1:0.115727 4:0.169591 5:0.247022 7:0.141026 8:0.0625 10:0.0588235 13:0.520833 17:0.518895 18:0.160237 19:0.202784 20:0.183824 21:0.300682 22:0.0872093 24:0.286765 25:0.0552326 26:0.199211 27:0.255132 33:0.0965762 35:0.316716 36:0.412713 40:0.0766962 43:0.28863 44:0.0298507 46:0.0265487 52:0.245614 53:0.460403 56:0.207463 57:0.0368732 58:0.167555 63:0.0813953 64:0.388552 65:0.0739645 67:0.126844 68:0.140914 69:0.129412 71:0.0645161 72:0.136174 73:0.209532 76:0.25731 77:0.0845481 78:0.0828402 81:0.0423977 
32 1:0.158055 2:0.0625 3:0.0841785 4:0.0584677 5:0.26274 6:0.0292044 7:0.0964912 8:0.0865191 9:0.0933063 10:0.010101 12:0.0216298 13:0.106491 14:0.113475 16:0.0255051 17:0.119718 18:0.0273556 19:0.281524 21:0.103663 22:0.0603622 23:0.147177 24:0.0984848 25:0.0191147 27:0.131685 28:0.074186 29:0.359026 31:0.103535 32:0.0131579 34:0.106061 35:0.0272452 36:0.358352 37:0.030564 38:0.109091 39:0.082912 40:0.157735 41:0.0233065 42:0.0588235 44:0.0101523 46:0.0728008 47:0.0140845 48:0.0704545 52:0.0564516 53:0.485291 54:0.100604 55:0.141988 56:0.282234 57:0.0379171 58:0.153018 60:0.0291751 61:0.112903 63:0.028169 64:0.488546 65:0.0759109 66:0.0663984 67:0.130435 68:0.0486741 70:0.0403633 71:0.177598 72:0.0234735 73:0.185701 74:0.0345178 75:0.0231855 76:0.0443548 77:0.233635 78:0.0566802 79:0.0875252 80:0.0967742 81:0.0877016 
32 1:0.0821053 4:0.120833 5:0.239544 7:0.10014 8:0.133817 9:0.0970464 10:0.0209205 11:0.0892116 13:0.221519 14:0.117895 15:0.0647182 17:0.123444 19:0.216611 22:0.124481 23:0.0760417 24:0.203975 25:0.0394191 31:0.142957 32:0.0546218 34:0.131799 35:0.0563674 36:0.466645 37:0.127018 38:0.0564854 39:0.171908 40:0.0545073 41:0.0961272 43:0.102911 45:0.166667 46:0.0377358 47:0.0290456 48:0.0486402 49:0.0777311 50:0.0613108 52:0.0583333 53:0.425867 54:0.518672 55:0.147679 57:0.0524109 58:0.212271 59:0.0777311 60:0.120332 64:0.478677 65:0.105042 66:0.136929 67:0.0901468 68:0.20097 70:0.167015 73:0.175159 78:0.0588235 80:0.2 
32 1:0.0550588 3:0.0468927 4:0.0680751 5:0.23403 6:0.0816518 7:0.156946 8:0.0504221 9:0.086629 10:0.056391 11:0.0806754 12:0.0201689 13:0.0659134 14:0.0263529 15:0.0145608 16:0.0474624 17:0.306989 18:0.0889412 19:0.246269 20:0.0881109 21:0.0482786 22:0.0844278 23:0.0856808 24:0.137453 25:0.0356473 26:0.0316714 27:0.245186 28:0.138276 29:0.111111 30:0.00844674 31:0.160558 32:0.0183443 33:0.155827 34:0.128289 35:0.0760921 36:0.336321 37:0.0851765 38:0.0507519 39:0.19276 40:0.342266 41:0.152126 42:0.0819209 44:0.00471032 45:0.037194 46:0.0253879 47:0.0196998 48:0.0655545 49:0.0174036 50:0.0409797 51:0.260706 52:0.0788732 53:0.465866 54:0.0703565 55:0.131827 56:0.0982101 57:0.0763987 58:0.154147 59:0.0522107 60:0.054409 61:0.0262911 63:0.0262664 64:0.439531 65:0.117592 66:0.0619137 67:0.121298 68:0.113405 69:0.0827068 71:0.0516674 72:0.0327968 73:0.171955 74:0.0160151 75:0.0323944 76:0.103286 77:0.0816518 78:0.0658514 79:0.0816135 80:0.0150235 81:0.013615 
32 2:0.302439 3:0.0834171 4:0.282927 5:0.258819 6:0.140777 8:0.103865 10:0.0492611 13:0.175879 19:0.170716 22:0.144928 26:0.167496 29:0.296482 30:0.0873786 32:0.0646766 33:0.160494 34:0.103448 36:0.477461 40:0.257426 41:0.111916 46:0.0445545 52:0.409756 53:0.485523 55:0.351759 57:0.0618812 58:0.170687 63:0.0676329 64:0.350939 65:0.124378 67:0.425743 68:0.234628 69:0.108374 71:0.215686 72:0.113589 73:0.162916 76:0.214634 
10.273418838164636 2:0.973822 4:0.151832 5:0.237878 6:0.302083 8:0.111399 11:0.222798 13:0.189189 16:0.133598 19:0.206631 21:0.538394 22:0.310881 26:0.180036 27:0.228947 33:0.172136 34:0.333333 36:0.406726 40:0.138298 42:0.313514 43:0.257812 46:0.0478723 50:0.157609 52:0.146597 53:0.407018 56:0.377717 57:0.0664894 58:0.165907 64:0.395817 66:0.341969 70:0.210526 71:0.115789 72:0.121915 73:0.19923 76:0.691099 78:0.149733 79:0.225389 
32 1:1 3:0.215584 5:0.293775 9:0.298701 12:0.252941 15:0.378049 19:0.111337 20:0.771605 22:0.352941 30:0.214286 33:0.39085 35:0.329268 36:0.604575 37:0.386752 46:0.1125 48:0.287037 52:0.337349 53:0.777697 58:0.203127 62:0.384615 64:0.625135 71:0.536585 73:0.220817 76:0.53012 81:0.174699 
32 1:0.152344 3:0.065098 4:0.111111 5:0.303725 6:0.110687 8:0.081749 10:0.0772201 12:0.163498 16:0.292471 17:0.226236 18:0.210938 19:0.192305 23:0.139847 26:0.261997 27:0.167308 32:0.0505837 33:0.378961 34:0.0810811 36:0.439117 38:0.208494 41:0.0880862 46:0.0697674 47:0.212928 48:0.179537 50:0.114173 52:0.10728 53:0.466665 55:0.137255 57:0.0484496 58:0.161854 60:0.110266 64:0.556911 68:0.184478 69:0.0849421 71:0.0846154 73:0.200996 74:0.0669291 77:0.221374 79:0.165399 
32 5:0.299136 9:0.479167 14:0.290155 17:0.2975 19:0.124735 20:0.318878 22:0.15 23:0.737374 27:0.220812 29:0.307292 31:0.17432 33:0.332222 36:0.435323 40:0.133333 44:0.052356 46:0.138462 48:0.237245 49:0.190722 53:0.520112 58:0.0819155 60:0.29 64:0.515362 66:0.33 68:0.242881 69:0.112245 71:0.111675 73:0.192998 79:0.435 
32 5:0.269488 6:0.508772 8:0.186957 9:0.429907 16:0.454955 17:0.517391 19:0.145685 22:0.26087 27:0.388393 33:0.288889 34:0.189189 35:0.241071 36:0.358942 37:0.279321 40:0.472727 41:0.402899 48:0.418919 50:0.273585 53:0.418306 54:0.434783 55:0.327103 58:0.191893 64:0.280873 66:0.573913 73:0.1615 77:0.508772 81:0.128319 
32 2:0.103853 3:0.028088 4:0.0971524 5:0.275813 6:0.145485 7:0.241147 8:0.143573 9:0.194585 13:0.177665 15:0.0520134 16:0.0848739 17:0.0993322 18:0.0912162 19:0.149236 20:0.105042 22:0.0500835 23:0.183417 24:0.163866 26:0.0567735 29:0.0998308 30:0.0301003 31:0.057423 32:0.0438449 33:0.166388 34:0.0352941 36:0.394956 37:0.0509572 40:0.043771 41:0.116027 42:0.0981387 43:0.0827759 46:0.0757576 47:0.0233723 48:0.156303 50:0.0491525 53:0.524552 57:0.0841751 58:0.146 59:0.124789 60:0.096828 61:0.281407 62:0.0506757 63:0.0701169 64:0.478296 65:0.0421585 66:0.110184 68:0.080825 69:0.0369748 71:0.0369128 72:0.156018 73:0.206487 76:0.0737018 77:0.19398 79:0.072621 81:0.0485762 
32 1:0.11747 5:0.301904 7:0.143143 8:0.0634218 9:0.0694864 12:0.0634218 13:0.10574 17:0.175516 18:0.0813253 19:0.214333 22:0.0884956 23:0.324926 24:0.291045 27:0.388393 32:0.039039 33:0.196001 34:0.313433 35:0.241071 36:0.277924 37:0.0908635 38:0.080597 39:0.245509 40:0.155689 41:0.136676 42:0.175227 46:0.0269461 50:0.0878788 52:0.0830861 53:0.471882 55:0.10574 56:0.210606 57:0.0374251 58:0.163952 60:0.0855457 63:0.123894 64:0.532952 68:0.285996 69:0.131343 71:0.0654762 73:0.207096 77:0.257396 78:0.0840841 80:0.189911 81:0.0430267 
32 1:0.1875 5:0.236597 6:0.271028 7:0.22807 9:0.333333 10:0.0473934 13:0.169082 19:0.142473 21:0.482786 22:0.139535 27:0.205189 30:0.0841121 36:0.274128 38:0.127962 41:0.107752 43:0.231308 46:0.0857143 48:0.220379 52:0.131455 53:0.499357 55:0.169082 57:0.178571 58:0.113675 60:0.134884 62:0.144231 64:0.271112 66:0.306977 67:0.409524 69:0.104265 73:0.196637 81:0.0680751 
29.395748089321216 4:0.32493 5:0.312748 8:0.0598886 10:0.140845 12:0.0598886 16:0.0711268 17:0.165738 18:0.153409 19:0.269424 26:0.190746 27:0.366573 29:0.336182 30:0.0502793 32:0.0368272 33:0.185082 34:0.0591549 35:0.0758427 36:0.455265 40:0.587571 41:0.0645311 48:0.065493 49:0.104816 52:0.156863 53:0.522823 55:0.0997151 58:0.150511 60:0.0807799 63:0.0389972 64:0.379256 65:0.283286 67:0.121469 69:0.247887 71:0.123596 72:0.0652261 73:0.205857 76:0.616246 77:0.243017 78:0.0793201 
14.647296117805718 1:0.19898 5:0.317807 7:0.241963 9:0.117949 10:0.0502513 12:0.105911 13:0.179487 16:0.126884 19:0.268015 23:0.181592 26:0.170897 27:0.435 34:0.316583 36:0.430577 37:0.153912 38:0.135678 40:0.393939 43:0.24505 46:0.0909091 49:0.187817 51:0.706633 53:0.434688 55:0.358974 57:0.189394 58:0.188284 64:0.376241 66:0.650246 68:0.239274 69:0.110553 70:0.2 73:0.166569 76:0.218905 77:0.143564 80:0.159204 
32 1:0.0641447 4:0.141925 5:0.307469 7:0.234811 8:0.0699187 9:0.0757825 10:0.0981997 11:0.0699187 12:0.174797 13:0.0576606 14:0.0921053 16:0.123977 18:0.0444079 19:0.224271 20:0.102291 22:0.097561 23:0.0595432 24:0.0797872 25:0.0308943 26:0.0552819 27:0.213235 30:0.0586319 31:0.0559193 32:0.0213465 33:0.540199 34:0.13748 35:0.0441176 36:0.312863 37:0.0496162 38:0.0883797 40:0.127869 41:0.0376694 42:0.191104 44:0.0165017 46:0.0295082 47:0.0227642 48:0.114157 49:0.0607553 50:0.0957096 52:0.137031 53:0.47807 55:0.115321 57:0.0819672 58:0.136427 59:0.121511 63:0.0682927 64:0.431465 65:0.205255 66:0.107317 69:0.0360065 70:0.0653595 71:0.0359477 73:0.199712 76:0.0717781 77:0.0944625 80:0.0522023 81:0.0946166 
32 4:0.230159 5:0.401326 6:0.228346 8:0.167969 11:0.335938 13:0.291667 16:0.407258 17:0.464844 19:0.228522 23:0.579365 24:0.393145 26:0.275956 36:0.388707 40:0.211382 41:0.18099 42:0.966667 43:0.389764 50:0.243697 52:0.444444 53:0.680438 55:0.291667 57:0.101626 58:0.210291 64:0.281181 68:0.761155 73:0.161588 79:0.339844 81:0.345238 
11.910132770870844 5:0.318733 18:0.642857 19:0.0715615 24:0.560345 35:0.306818 36:0.0487261 46:0.104651 52:0.314607 53:0.72699 55:0.421687 58:0.235154 64:0.397925 68:0.537037 69:0.252874 73:0.204777 79:0.478022 81:0.162921 
32 4:0.106227 5:0.239883 6:0.105839 8:0.156364 9:0.172285 12:0.0781818 13:0.131086 15:0.227941 18:0.100746 19:0.202608 22:0.109091 23:0.401099 27:0.159926 30:0.19708 33:0.362424 36:0.350661 38:0.199262 39:0.303704 40:0.192593 42:0.217228 44:0.037594 46:0.0666667 48:0.171587 50:0.43609 52:0.102564 53:0.389005 54:0.181818 55:0.131086 58:0.150305 59:0.137546 60:0.210909 64:0.47674 68:0.176399 70:0.147059 71:0.0808824 73:0.157435 74:0.12782 76:0.161172 78:0.104089 81:0.0531136 
2.070399874984437 1:0.176471 3:0.0754545 4:0.128319 5:0.162635 6:0.255507 12:0.188596 15:0.137778 16:0.33817 19:0.0900715 22:0.131579 23:0.161504 24:0.652902 26:0.151652 27:0.386667 30:0.0792952 33:0.145712 35:0.24 36:0.228731 40:0.233184 41:0.101608 43:0.436123 47:0.0614035 49:0.166667 52:0.123894 53:0.389762 57:0.280269 58:0.21069 60:0.127193 62:0.135747 64:0.490105 65:0.112613 67:0.192825 68:0.212922 72:0.103034 73:0.204284 74:0.0776256 75:0.10177 76:0.19469 77:0.127753 79:0.190789 81:0.0641593 
32 4:0.211679 5:0.208114 9:0.175573 17:0.428058 18:0.204545 19:0.217871 22:0.431655 36:0.530081 38:0.2 40:0.19403 47:0.100719 53:0.505251 56:0.534615 58:0.081751 60:0.208633 64:0.630086 66:0.47482 69:0.162963 72:0.169969 73:0.23458 76:0.321168 
32 1:0.0829787 3:0.0353945 4:0.122105 5:0.241375 6:0.0609244 7:0.101203 8:0.0901468 9:0.0490405 10:0.0634249 12:0.0901468 14:0.119149 15:0.130802 17:0.498952 18:0.114894 19:0.205671 21:0.216491 22:0.0628931 23:0.0768421 26:0.0714791 27:0.183544 29:0.377399 30:0.0378151 31:0.072234 33:0.139297 34:0.0443975 35:0.113924 36:0.328626 38:0.0570825 40:0.385593 41:0.0485674 43:0.207983 46:0.0572034 47:0.1174 48:0.196617 50:0.0619658 53:0.37896 56:0.148504 57:0.0264831 58:0.205906 60:0.121593 62:0.0638298 63:0.0587002 64:0.462694 65:0.0530786 67:0.0911017 69:0.0465116 72:0.0490226 73:0.180311 75:0.0484211 76:0.185263 78:0.178344 
32 1:0.161826 4:0.235772 5:0.24035 6:0.117409 9:0.0958333 10:0.163934 17:0.239919 19:0.119525 20:0.256148 22:0.120968 25:0.153226 27:0.177551 29:0.245833 31:0.140027 32:0.107438 33:0.133961 34:0.172131 35:0.330612 36:0.285865 38:0.110656 40:0.106996 41:0.186828 48:0.0952869 52:0.113821 53:0.456858 54:0.201613 55:0.145833 57:0.0514403 58:0.172116 59:0.152893 62:0.124481 63:0.112903 64:0.490249 65:0.103306 67:0.176955 73:0.231126 77:0.234818 78:0.115702 80:0.130081 81:0.0589431 
6.8358813829780161 2:0.430556 4:0.201389 5:0.282887 8:0.14726 13:0.253623 15:0.216783 17:0.407534 19:0.130775 22:0.410959 23:0.253472 24:0.34331 26:0.240476 27:0.304196 34:0.147887 36:0.735481 38:0.190141 40:0.184397 41:0.158676 46:0.12766 47:0.0958904 49:0.264286 50:0.211679 53:0.535333 55:0.253623 58:0.192255 63:0.0958904 64:0.482754 66:0.452055 72:0.323413 73:0.195696 
25.739667043915141 1:0.286064 4:0.140097 5:0.256885 6:0.0698795 9:0.0563725 10:0.0485437 11:0.103365 12:0.0516827 13:0.171569 16:0.0612864 18:0.132029 19:0.172347 25:0.0456731 26:0.164228 27:0.210654 29:0.144608 30:0.0433735 31:0.331715 33:0.159722 35:0.0653753 36:0.156807 37:0.0737571 40:0.379562 43:0.119277 46:0.0218978 47:0.0336538 48:0.112864 49:0.180488 51:0.338631 52:0.202899 53:0.358043 55:0.0857843 57:0.0304136 58:0.193318 63:0.100962 64:0.513426 65:0.0609756 66:0.158654 67:0.104623 69:0.106796 73:0.182912 74:0.041769 75:0.0555556 76:0.318841 77:0.139759 79:0.104567 81:0.105072 
32 1:0.114035 3:0.0486804 5:0.205817 6:0.166667 9:0.337243 12:0.123209 14:0.163743 15:0.179191 16:0.0731884 17:0.170487 18:0.0789474 19:0.211896 27:0.125723 29:0.519062 31:0.0990338 32:0.0758017 33:0.0951926 34:0.0608696 35:0.0780347 36:0.455135 40:0.0755814 41:0.19914 43:0.426724 47:0.0401146 49:0.107872 50:0.0852941 52:0.242075 53:0.463006 54:0.286533 55:0.102639 56:0.204412 57:0.0726744 58:0.109353 64:0.479547 65:0.218659 67:0.125 68:0.277778 69:0.0637681 71:0.0635838 72:0.134212 73:0.205073 77:0.333333 79:0.124642 
32 1:0.102094 5:0.25394 7:0.124456 8:0.16581 10:0.0779221 12:0.11054 16:0.0655844 18:0.0706806 19:0.193095 20:0.324675 22:0.0771208 23:0.0943152 24:0.126623 26:0.0879025 27:0.112694 28:0.189863 30:0.0463918 31:0.177489 32:0.0339426 34:0.109091 36:0.422942 38:0.14026 40:0.0677083 41:0.119109 43:0.255155 44:0.0263158 46:0.0234375 48:0.0603896 49:0.0966057 50:0.152632 52:0.0723514 53:0.46451 56:0.182895 57:0.130208 58:0.176135 60:0.0745501 62:0.078534 64:0.443109 68:0.12457 69:0.171429 71:0.11399 73:0.190406 77:0.448454 
23.076801222841897 4:0.15508 5:0.253884 6:0.154255 8:0.113757 11:0.227513 12:0.227513 13:0.19337 19:0.192397 22:0.15873 26:0.183971 30:0.0957447 33:0.175779 34:0.113514 36:0.497515 39:0.445652 40:0.282609 41:0.122575 48:0.125676 52:0.149733 53:0.49209 55:0.38674 57:0.0679348 58:0.196758 61:0.299465 62:0.164835 64:0.733352 68:0.257092 73:0.197182 74:0.188889 80:0.171123 81:0.0775401 
32 5:0.268905 6:0.208633 13:0.265152 14:0.842105 18:0.203008 19:0.21382 21:0.745169 23:0.793478 32:0.0970149 36:0.179378 48:0.341912 52:0.202899 53:0.343815 58:0.202447 59:0.276119 61:0.405797 64:0.319839 73:0.205631 74:0.259542 81:0.105072 
32 1:0.101714 3:0.0123742 4:0.0539234 5:0.258872 6:0.140149 7:0.0532588 8:0.0319584 9:0.145732 10:0.0483811 11:0.0319584 12:0.00798959 13:0.156541 14:0.0208644 15:0.0345982 16:0.0375884 17:0.221107 18:0.0100596 19:0.246415 20:0.0697804 22:0.0557414 23:0.28505 24:0.0725716 25:0.0282423 27:0.0647321 28:0.0273854 29:0.0879612 31:0.139871 32:0.033892 33:0.037037 34:0.117231 35:0.0401786 36:0.401766 38:0.0502419 39:0.091586 40:0.232316 41:0.172179 43:0.147212 44:0.00745712 45:0.0294447 46:0.056962 47:0.0260126 48:0.0605694 49:0.0137803 50:0.0324385 52:0.0937151 53:0.446132 54:0.0743218 55:0.208722 56:0.0259135 57:0.0651526 58:0.175777 60:0.204757 61:0.0208256 62:0.0111773 63:0.0156076 64:0.460319 65:0.0558659 66:0.0735786 67:0.0480268 68:0.0539033 69:0.0245627 70:0.0297619 71:0.0736607 72:0.0865962 73:0.195053 74:0.0380313 76:0.0327259 77:0.215613 78:0.0104283 79:0.03233 80:0.035701 81:0.0916698 
14.787881491242262 4:0.0430906 5:0.259832 9:0.0689655 10:0.0596125 13:0.0524738 19:0.218096 36:1 41:0.960988 48:0.0346498 53:0.451947 54:0.0740741 55:0.314843 57:0.0186567 58:1 60:0.042963 64:0.608094 73:1 
32 4:0.0695444 5:0.226916 6:0.138756 8:0.102625 10:0.0240964 12:0.102625 14:0.271845 16:0.0608434 18:0.131068 19:0.101534 22:0.071599 24:0.11747 31:0.246988 33:0.0792893 34:0.0506024 35:0.0649038 36:0.341507 40:0.188406 42:0.141119 47:0.0334129 48:0.224096 49:0.0895884 50:0.212195 52:0.201439 53:0.470367 54:0.477327 57:0.0301932 58:0.227682 60:0.0692124 62:0.0728155 63:0.0334129 64:0.455384 67:0.207729 68:0.34689 69:0.053012 71:0.158654 73:0.196679 76:0.422062 77:0.138756 78:0.0677966 79:0.103819 81:0.0347722 
12.786608339153613 5:0.428951 18:1 19:0.294792 25:0.558824 34:0.7 36:0.786777 47:0.411765 53:0.595648 58:0.183614 64:1 71:0.709677 73:0.264792 78:1 80:1 
32 1:0.147727 4:0.108818 5:0.264103 6:0.217228 7:0.0901071 8:0.0401869 9:0.0436433 10:0.0564972 13:0.132827 15:0.116541 16:0.0475518 17:0.22243 18:0.204545 19:0.208916 23:0.273921 24:0.0918079 25:0.035514 26:0.0636421 29:0.223909 31:0.193032 33:0.0620976 34:0.079096 35:0.101504 36:0.469033 38:0.101695 40:0.29434 41:0.0866044 45:0.149905 46:0.0679245 48:0.0875706 49:0.139887 50:0.0551331 51:0.262311 52:0.0525328 53:0.483994 55:0.132827 56:0.396388 57:0.0471698 58:0.151595 60:0.108411 62:0.0568182 63:0.0523364 64:0.447263 67:0.243396 68:0.181024 69:0.0414313 71:0.0413534 72:0.043688 73:0.223121 74:0.0323194 76:0.0825516 79:0.0813084 
32 4:0.465863 5:0.247384 9:0.0946502 10:0.0404858 12:0.0856574 14:0.229508 17:0.237052 19:0.311094 21:0.412985 23:0.146586 24:0.197368 25:0.0756972 26:0.27483 30:0.072 31:0.276653 33:0.132359 34:0.0850202 36:0.449667 40:0.317073 41:0.0922975 42:0.238683 43:0.198 46:0.109756 47:0.111554 50:0.239669 51:0.567623 53:0.426531 55:0.144033 57:0.101626 58:0.142151 59:0.15102 60:0.346614 64:0.509207 68:0.193333 69:0.178138 70:0.16129 73:0.197287 78:0.114286 80:0.514056 81:0.0582329 
32 1:0.0776892 3:0.0662675 5:0.242651 7:0.0947647 8:0.0844794 9:0.0459082 10:0.019802 13:0.0698603 14:0.334661 15:0.0612648 16:0.05 17:0.233792 19:0.225224 20:0.123762 22:0.0589391 23:0.143984 24:0.193069 25:0.0373281 26:0.0669317 27:0.343874 30:0.106299 31:0.0676568 32:0.0516899 33:0.0652696 35:0.106719 36:0.491845 37:0.180279 38:0.106931 40:0.206349 41:0.0455141 44:0.08 46:0.0357143 47:0.0275049 48:0.184158 50:0.174 53:0.491539 54:0.294695 55:0.0698603 57:0.124008 58:0.185444 60:0.170923 64:0.48143 65:0.0497018 66:0.64833 67:0.255952 69:0.0435644 71:0.0869565 73:0.183214 78:0.055666 80:0.126233 
32 1:0.178899 4:0.130045 5:0.332496 6:0.388393 9:0.105991 10:0.0452489 12:0.0955556 16:0.114253 18:0.123853 19:0.207751 21:0.461136 23:0.163677 25:0.0844444 26:0.307458 28:0.328869 30:0.0803571 32:0.0593607 33:0.147654 35:0.243243 36:0.199494 38:0.122172 40:0.118182 45:0.728111 46:0.0409091 47:0.124444 49:0.16895 52:0.502242 53:0.590539 54:0.222222 57:0.0568182 58:0.166377 60:0.128889 62:0.137615 63:0.186667 64:0.620006 65:0.228311 68:0.215774 72:0.10442 73:0.175717 74:0.0787037 76:0.789238 79:0.193333 80:0.286996 81:0.0650224 
10.366325384486055 5:0.154057 9:0.403509 10:0.0847458 11:0.352459 13:0.307018 17:0.487705 18:0.234783 19:0.167592 23:0.304167 26:0.29023 32:0.112069 33:0.272313 34:0.355932 36:0.67714 43:0.409091 48:0.197034 49:0.318966 53:0.379454 58:0.120298 63:0.114754 64:0.424876 67:0.367521 69:0.372881 71:0.184874 72:0.194048 73:0.170178 79:0.356557 
32 2:0.296651 3:0.0402913 4:0.138756 5:0.256506 10:0.0480769 13:0.169903 16:0.0606971 19:0.199641 20:0.751202 22:0.0714286 27:0.208633 32:0.031401 34:0.0504808 35:0.0647482 36:0.277724 39:0.19759 40:0.187952 41:0.0551587 42:0.140777 44:0.0243309 48:0.0558894 53:0.460662 55:0.424757 57:0.0301205 58:0.158554 60:0.414286 63:0.0333333 64:0.46956 65:0.0603865 66:0.157143 68:0.230708 69:0.105769 73:0.212417 74:0.0827251 77:0.0692124 81:0.104067 
32 1:0.171806 5:0.227784 7:0.209064 15:0.134199 19:0.328392 26:0.147661 27:0.188312 30:0.0772532 31:0.297101 33:0.283951 35:0.233766 36:0.677957 42:0.256637 47:0.119658 48:0.202174 52:0.241379 53:0.369276 54:0.213675 58:0.134551 64:0.28705 66:0.282051 69:0.0956522 70:0.17316 73:0.184211 76:0.568966 78:0.245614 79:0.185897 81:0.1875 
32 1:0.189781 2:0.298077 4:0.0697115 5:0.277252 8:0.0514354 9:0.0560976 10:0.0483092 11:0.205742 12:0.0514354 14:0.136253 17:0.142344 19:0.281217 23:0.0877404 24:0.117754 27:0.104819 28:0.176659 30:0.0431655 31:0.0825282 32:0.0631068 33:0.079479 35:0.260241 36:0.433687 38:0.130435 39:0.198547 40:0.062954 41:0.0554226 46:0.0217918 49:0.0898058 50:0.0709046 52:0.201923 53:0.426432 55:0.0853659 57:0.0605327 58:0.163402 60:0.069378 64:0.54919 65:0.0606796 67:0.312349 71:0.053012 73:0.192476 74:0.0415648 76:0.317308 77:0.0695444 79:0.208134 
32 1:0.216667 5:0.337504 8:0.114973 9:0.513966 16:0.275956 19:0.292584 23:0.394595 31:0.186703 34:0.114754 35:0.146739 36:0.330287 40:0.142857 41:0.247772 46:0.0989011 47:0.0748663 48:0.508197 49:0.20442 52:0.151351 53:0.528696 57:0.137363 58:0.126885 60:0.31016 63:0.0748663 64:0.392933 65:0.138122 71:0.119565 72:0.125869 73:0.145708 74:0.0955056 78:0.154696 81:0.156757 
32 1:0.433333 5:0.275622 7:0.263352 8:0.114973 10:0.0546448 11:0.229947 15:0.168478 17:0.318182 19:0.223287 22:0.160428 28:0.396057 32:0.0718232 36:0.368908 37:0.167593 38:0.147541 41:0.123886 45:0.441341 48:0.127049 52:0.302703 53:0.44558 55:0.195531 63:0.0748663 64:0.490664 65:0.138122 68:0.259857 72:0.125869 73:0.194234 78:0.154696 81:0.0783784 
32 1:0.104464 3:0.0296693 5:0.231686 6:0.10302 7:0.127565 8:0.0381544 9:0.10277 10:0.106857 13:0.0938338 14:0.2 16:0.0224844 17:0.158385 18:0.0723214 19:0.224583 20:0.0556545 22:0.079858 24:0.0434105 25:0.0168589 26:0.0300327 27:0.0774021 29:0.0527256 30:0.0159858 31:0.121698 32:0.0115968 33:0.0294785 34:0.112199 35:0.0720641 36:0.255245 37:0.161607 38:0.0240427 39:0.0730838 40:0.208556 41:0.472789 44:0.00894454 46:0.040107 47:0.0496894 48:0.0207035 49:0.0330062 50:0.0259392 53:0.470601 54:0.133097 55:0.375335 56:0.124329 57:0.0779857 58:0.27538 59:0.0660125 60:0.0514641 61:0.0497778 63:0.0496894 64:0.42434 65:0.0223015 66:0.117125 68:0.214624 69:0.0979519 71:0.0978648 72:0.0620952 73:0.203275 74:0.0608229 75:0.0204444 76:0.0782222 77:0.0772647 78:0.0749331 79:0.0771961 80:0.0568889 81:0.0902222 
3.3982429435291732 2:0.0516236 4:0.0482931 5:0.237841 6:0.217138 7:0.0796436 8:0.017872 10:0.00834028 12:0.0714879 13:0.146444 14:0.0468227 15:0.0516667 16:0.0421184 17:0.0989194 19:0.215522 21:0.513739 23:0.0303913 25:0.0157938 26:0.0562517 27:0.25375 28:0.245147 29:0.0493724 31:0.113984 32:0.021721 34:0.0175146 36:0.379083 37:0.025223 38:0.0225188 39:0.136895 40:0.30384 41:0.0770296 46:0.0525876 47:0.104738 50:0.0485762 52:0.0932556 53:0.459118 54:0.0415628 55:0.0292887 57:0.0521703 58:0.205325 59:0.0927318 60:0.0241064 63:0.0232751 64:0.425054 65:0.125313 67:0.0358932 68:0.120632 69:0.0550459 71:0.165 72:0.0387772 73:0.185726 76:0.183181 77:0.0723794 79:0.0361596 81:0.0241465 
15.173948978978553 4:0.18239 5:0.201787 6:0.18125 12:0.267081 19:0.2694 26:0.434409 29:0.385621 33:0.206349 36:0.251746 39:0.525641 40:0.833333 43:0.309375 46:0.0576923 47:0.173913 48:0.148089 52:0.704403 53:0.369556 58:0.197593 62:0.194805 64:0.353179 66:0.409938 67:0.275641 73:0.19232 76:0.27673 79:0.270186 
9.945346747309566 1:0.537931 4:0.193333 5:0.202616 11:0.282895 14:0.386207 18:0.186207 19:0.286661 27:0.291946 34:0.141892 35:0.181208 36:0.228151 40:0.176871 42:0.402778 47:0.0921053 53:0.39472 55:0.243056 58:0.11457 64:0.629036 68:0.320088 71:0.295302 73:0.179494 80:0.213333 
32 1:0.148855 2:0.23221 4:0.108614 5:0.221355 9:0.0881226 10:0.0377358 13:0.1341 18:0.103053 19:0.220308 22:0.557621 23:0.136704 27:0.163534 32:0.0494297 33:0.247005 35:0.101504 36:0.217729 39:0.310606 40:0.295455 41:0.0861214 42:0.444444 43:0.184701 44:0.0384615 46:0.0340909 47:0.0520446 48:0.175472 52:0.104869 53:0.47915 54:0.185874 55:0.1341 57:0.0473485 58:0.116538 59:0.140684 61:0.209738 63:0.104089 64:0.460377 68:0.180348 70:0.150376 73:0.189994 77:0.108209 79:0.32342 
32 5:0.302826 6:0.165714 8:0.122159 10:0.116279 14:0.331361 17:0.676136 19:0.336727 29:0.35119 31:0.198643 36:0.260875 37:0.178501 39:0.959064 40:0.304094 43:0.282857 46:0.0526316 48:0.135174 53:0.50982 55:0.208333 57:0.0730994 58:0.169524 59:0.217647 60:0.164773 62:0.177515 64:0.438594 67:0.502924 69:0.127907 71:0.127168 73:0.192576 76:0.505747 81:0.0833333 
32 1:0.270833 3:0.116084 5:0.273648 6:0.193333 8:0.142384 15:0.209459 19:0.157677 26:0.232184 34:0.285714 36:0.217567 39:0.561644 41:0.153422 43:0.33 45:0.552448 47:0.18543 48:0.158163 50:0.204225 52:0.187919 53:0.539762 55:0.244755 57:0.0856164 58:0.125474 64:0.326624 67:0.294521 73:0.205778 76:0.590604 79:0.288079 
32 4:0.0625 5:0.263222 6:0.187097 7:0.103623 8:0.0922747 9:0.150655 13:0.0764192 16:0.109307 17:0.383047 18:0.0588235 19:0.234166 22:0.0643777 27:0.281857 29:0.257642 34:0.136364 36:0.441683 40:0.225597 41:0.198856 42:0.126638 44:0.0218818 48:0.0503247 49:0.0804348 52:0.0603448 53:0.432933 54:0.214592 55:0.0764192 57:0.0542299 58:0.15142 64:0.536863 65:0.108696 67:0.186551 68:0.103943 71:0.0950324 72:0.0501847 73:0.184666 76:0.0948276 77:0.0623656 79:0.186695 80:0.0689655 
32 1:0.210811 4:0.154667 5:0.245867 6:0.0771277 8:0.114058 9:0.124661 10:0.0268097 12:0.114058 15:0.0828877 16:0.0676944 18:0.072973 19:0.195087 21:0.274222 23:0.194667 26:0.181491 27:0.11631 30:0.143617 31:0.183199 32:0.0350404 35:0.216578 36:0.298425 39:0.66129 40:0.139785 41:0.1229 44:0.0271739 45:0.214092 46:0.0725806 47:0.0371353 48:0.0623324 52:0.149333 53:0.395104 54:0.132626 56:0.188859 57:0.0672043 58:0.162855 59:0.0997305 60:0.230769 63:0.0742706 64:0.516287 65:0.134771 66:0.350133 69:0.0589812 70:0.106952 73:0.209756 74:0.0461957 76:0.117333 77:0.154255 80:0.170667 
14.029963292965004 1:0.233533 2:0.72093 4:0.337209 5:0.226672 6:0.50289 8:0.123563 10:0.0588235 12:0.123563 13:0.210843 14:0.335329 19:0.20586 23:0.424419 25:0.218391 26:0.200397 30:0.104046 33:0.381865 36:0.0960039 37:0.180639 39:0.485207 40:0.461538 48:0.410294 53:0.497746 54:0.287356 56:0.421212 57:0.147929 58:0.0844536 59:0.220238 64:0.448176 66:0.37931 73:0.204727 77:0.16763 
32 4:0.114173 5:0.259903 8:0.167969 10:0.0396825 16:0.400794 19:0.350037 23:0.287402 24:0.193452 26:0.134667 29:0.475806 31:0.135582 32:0.052 33:0.129774 34:0.166667 36:0.437026 38:0.107143 40:0.207171 41:0.0904948 43:0.194118 44:0.0404858 49:0.148 50:0.234818 52:0.220472 53:0.386293 56:0.562753 57:0.0498008 58:0.178205 60:0.113281 64:0.436512 68:0.189542 69:0.0873016 71:0.0869565 73:0.208776 75:0.0905512 77:0.227451 79:0.169922 
32 2:0.504065 4:0.235772 5:0.299356 10:0.0826446 19:0.278172 24:0.402893 25:0.304 32:0.109244 36:0.333761 38:0.22314 40:0.216667 41:0.185333 42:0.495726 48:0.192149 49:0.310924 53:0.611856 57:0.208333 58:0.130499 64:0.553071 65:0.210084 66:0.528 70:0.327869 73:0.157883 77:0.233871 80:0.520325 81:0.117886 
32 1:0.09375 3:0.04 4:0.0688836 5:0.281534 6:0.0687204 8:0.20331 10:0.0477327 13:0.0843373 15:0.0738095 16:0.0602625 17:0.140662 19:0.384526 23:0.173397 24:0.349045 26:0.161471 27:0.207143 30:0.0853081 31:0.163087 33:0.0785395 34:0.100239 35:0.0642857 36:0.169082 37:0.072516 40:0.062201 41:0.109535 43:0.234597 45:0.190361 46:0.0645933 47:0.0330969 48:0.0554893 50:0.140097 52:0.0665083 53:0.459075 54:0.118203 57:0.0598086 58:0.160767 59:0.088729 60:0.0685579 61:0.133017 62:0.0721154 63:0.0661939 64:0.517309 65:0.059952 68:0.343602 70:0.0952381 71:0.052381 73:0.186746 76:0.104513 77:0.137441 78:0.201439 79:0.411348 81:0.0344418 
32 5:0.229754 6:0.213759 7:0.118574 8:0.0526961 9:0.345 13:0.175 15:0.0765432 17:0.145833 18:0.0673317 19:0.233979 23:0.179803 24:0.120668 25:0.0931373 27:0.214815 29:0.1475 30:0.044226 32:0.0323383 34:0.0519802 35:0.0666667 36:0.350745 37:0.0752286 38:0.133663 40:0.129032 41:0.113562 42:0.145 43:0.121622 46:0.0223325 47:0.0343137 50:0.0726817 52:0.0689655 53:0.459343 57:0.0310174 58:0.139973 59:0.0920398 60:0.0710784 62:0.074813 63:0.0343137 64:0.423327 69:0.108911 70:0.0987654 71:0.217284 72:0.229416 73:0.228273 76:0.216749 77:0.0712531 79:0.319853 80:0.157635 81:0.0714286 
30.48015640994749 3:0.0846939 4:0.143564 5:0.330243 6:0.142857 10:0.2 13:0.178571 14:0.284264 16:0.12625 18:0.137056 19:0.118512 24:0.24375 36:0.496653 38:0.135 40:0.261307 41:0.227124 43:0.243842 46:0.0452261 48:0.11625 52:0.277228 53:0.520796 55:0.178571 57:0.0628141 58:0.0890891 60:0.284314 61:0.277228 64:0.623919 65:0.126263 66:0.323529 73:0.190199 79:0.213235 81:0.215347 
32 1:0.0511811 2:0.0808344 3:0.0654402 4:0.0756193 5:0.281301 6:0.0377604 7:0.124945 8:0.0279584 9:0.0906702 10:0.0261438 14:0.0734908 16:0.0660131 18:0.141732 19:0.252702 21:0.268144 22:0.0780234 23:0.095176 27:0.170366 29:0.232589 30:0.0234375 31:0.178649 33:0.172807 36:0.257729 37:0.0395888 40:0.102094 41:0.0301257 43:0.0644531 44:0.0394737 46:0.0471204 47:0.109233 48:0.0911765 50:0.0763158 52:0.0730117 53:0.489936 54:0.195059 55:0.183968 56:0.274342 57:0.0490838 58:0.155857 59:0.145478 60:0.226268 62:0.0393701 63:0.0364109 64:0.410806 66:0.257477 67:0.112565 68:0.062934 69:0.0287582 71:0.114883 72:0.0303595 73:0.182464 75:0.029987 76:0.229465 77:0.113281 78:0.0366972 79:0.056567 81:0.0567145 
32 1:0.195326 5:0.220556 6:0.143802 7:0.158889 8:0.0354785 9:0.0769231 10:0.0498339 12:0.0709571 13:0.0585284 15:0.102819 16:0.083887 17:0.392739 19:0.223426 26:0.0561111 27:0.0721393 29:0.197324 31:0.0567553 33:0.109644 36:0.227562 38:0.179402 40:0.129784 41:0.0764576 43:0.163636 46:0.0299501 47:0.0231023 48:0.270349 52:0.231788 53:0.40635 55:0.0585284 56:0.116415 57:0.124792 58:0.0924598 60:0.430693 62:0.200334 63:0.115512 64:0.404786 67:0.28619 68:0.15978 72:0.0385525 73:0.188176 75:0.0380795 77:0.0479339 79:0.0717822 81:0.0240066 
32 4:0.17126 5:0.202948 6:0.0569745 7:0.189153 8:0.0421569 9:0.0916335 10:0.0197628 12:0.0421569 13:0.139442 14:0.111332 16:0.149704 17:0.116667 18:0.161034 19:0.14173 23:0.215551 26:0.133598 27:0.171598 29:0.23506 31:0.0675231 32:0.077381 33:0.130283 34:0.041502 35:0.159763 36:0.284701 38:0.0533597 41:0.0454248 43:0.194499 44:0.0399202 45:0.314741 46:0.0534653 47:0.109804 48:0.0459486 49:0.0734127 52:0.0551181 53:0.443104 55:0.139442 56:0.138723 57:0.049505 58:0.195228 60:0.113725 61:0.110236 63:0.0823529 64:0.485467 65:0.14881 67:0.0851485 69:0.173913 71:0.216963 72:0.091676 73:0.165572 74:0.0678643 76:0.173228 77:0.0569745 78:0.0555556 
32 1:0.15415 4:0.112403 5:0.201357 6:0.111969 7:0.187664 11:0.165385 12:0.165385 13:0.138889 16:0.0986328 17:0.228846 18:0.106719 19:0.237447 23:0.141473 27:0.169261 30:0.0694981 31:0.133464 33:0.127778 34:0.0820312 35:0.105058 36:0.405453 38:0.210938 40:0.203922 41:0.178205 44:0.0398406 46:0.0352941 47:0.0538462 50:0.115538 52:0.108527 53:0.386508 57:0.0490196 58:0.150278 63:0.107692 64:0.583168 65:0.0984252 67:0.168627 68:0.186615 69:0.0859375 71:0.0856031 72:0.0902547 73:0.169594 77:0.223938 81:0.0562016 
32 1:0.0890411 2:0.139955 4:0.0654628 5:0.226485 7:0.21716 8:0.0483146 9:0.0526316 10:0.0226757 11:0.289888 12:0.0483146 14:0.127854 16:0.0572562 18:0.0616438 19:0.0986534 22:0.134831 27:0.393665 30:0.0810811 31:0.0774754 33:0.22397 36:0.494197 37:0.137747 39:0.186364 40:0.118182 43:0.111486 48:0.105442 49:0.0842825 52:0.0632054 53:0.502653 54:0.449438 55:0.0800915 57:0.0568182 58:0.224121 59:0.0842825 61:0.126411 62:0.205479 64:0.350159 66:0.148315 70:0.0904977 72:0.0525637 73:0.171649 74:0.0389908 76:0.0993228 77:0.0653153 79:0.0977528 81:0.163657 
32 1:0.141561 2:0.0373945 3:0.0100484 4:0.1924 5:0.253118 6:0.0349608 7:0.115276 8:0.0129518 9:0.11138 10:0.0241546 11:0.0518072 12:0.0388554 13:0.0847458 14:0.0677556 15:0.0187085 16:0.0304952 17:0.0358434 18:0.179673 19:0.234885 20:0.0377415 21:0.124045 22:0.0180723 23:0.176116 24:0.0883152 25:0.0228916 26:0.142483 27:0.0262523 30:0.0216998 31:0.165056 32:0.0392987 33:0.12008 34:0.0507246 35:0.0814725 36:0.363332 37:0.0364993 38:0.0163043 39:0.0495468 40:0.0785498 41:0.0418675 43:0.0298373 44:0.0121139 45:0.0478208 46:0.0598187 47:0.0421687 48:0.126359 49:0.06711 50:0.0175651 52:0.101327 53:0.460311 54:0.060241 55:0.127119 56:0.0420957 57:0.0755287 58:0.134601 59:0.04474 60:0.104819 62:0.0181488 63:0.0674699 64:0.500495 65:0.0302297 66:0.0795181 67:0.155891 68:0.116536 69:0.013285 70:0.04828 71:0.106216 72:0.0421334 73:0.181055 74:0.0308904 76:0.159228 77:0.122363 78:0.0169287 79:0.235843 80:0.0193004 81:0.0437274 
32 1:0.13198 4:0.0973154 5:0.243325 7:0.241554 8:0.0359532 9:0.0779661 10:0.0841751 12:0.0359532 13:0.059322 14:0.0947547 16:0.127525 17:0.397993 18:0.137056 19:0.232633 20:0.105219 22:0.0501672 23:0.183725 25:0.0635452 27:0.146218 30:0.0603015 31:0.0575196 33:0.0555556 34:0.106061 36:0.361129 37:0.0510434 38:0.0454545 40:0.175379 41:0.116221 44:0.0169779 46:0.0303541 47:0.0468227 48:0.0391414 50:0.049236 52:0.0939597 53:0.401948 55:0.059322 57:0.0632378 58:0.188072 59:0.0625 63:0.0234114 64:0.475491 65:0.126689 67:0.290051 69:0.0740741 71:0.110924 72:0.03907 73:0.190698 74:0.0288625 76:0.221477 77:0.0485762 78:0.0472973 81:0.0243289 
32 1:0.257426 3:0.0182819 4:0.126915 5:0.182458 6:0.031694 7:0.209524 8:0.0234716 9:0.0506608 10:0.0438596 11:0.0938865 12:0.0469432 13:0.154185 14:0.0616062 16:0.0276864 17:0.0649563 18:0.0891089 19:0.178372 20:0.0685307 21:0.112509 22:0.0327511 23:0.159737 25:0.0414847 26:0.110989 27:0.0952903 28:0.08051 29:0.064978 31:0.0374635 32:0.0142857 33:0.145075 34:0.0230263 35:0.0591457 36:0.413059 38:0.0296053 39:0.180022 40:0.11416 41:0.151747 42:0.0638767 43:0.0540984 44:0.0110254 46:0.0493963 47:0.0611354 48:0.0764803 50:0.0319735 52:0.122538 53:0.417445 54:0.0545852 55:0.154185 57:0.0274424 58:0.177171 59:0.0406593 60:0.126638 61:0.122538 63:0.0611354 64:0.444244 65:0.10989 66:0.0720524 67:0.0472009 68:0.105647 69:0.0723684 71:0.0481928 72:0.0254767 73:0.197752 76:0.14442 77:0.15847 78:0.0307692 79:0.0949782 80:0.0350109 81:0.0317287 
32 1:0.0619048 4:0.0456693 5:0.267456 6:0.0455975 7:0.151083 10:0.0947867 11:0.135008 12:0.033752 13:0.0556439 14:0.177778 15:0.0488959 17:0.0934066 18:0.171429 19:0.23783 20:0.0987362 22:0.0470958 23:0.0574803 26:0.106709 27:0.274448 29:0.187599 31:0.215903 32:0.0206022 33:0.104308 34:0.0663507 35:0.0425868 36:0.36442 37:0.0957672 38:0.0853081 40:0.164557 41:0.145474 43:0.15566 44:0.0159236 46:0.028481 47:0.043956 50:0.0461783 52:0.308661 53:0.377056 55:0.111288 57:0.0197785 58:0.189501 60:0.182104 63:0.021978 64:0.489233 65:0.0396197 66:0.103611 68:0.0759958 69:0.104265 73:0.16386 76:0.0692913 77:0.091195 78:0.044374 79:0.204867 81:0.0685039 
16.717284144112892 1:0.450867 5:0.214665 10:0.0568182 14:0.647399 19:0.142038 20:0.355114 22:0.333333 27:0.737288 32:0.0747126 33:0.184568 36:0.40477 40:0.594286 41:0.128704 42:0.337209 48:0.264205 50:0.169591 52:0.157303 53:0.35467 56:0.406433 58:0.0529575 64:0.367191 65:0.143678 69:0.125 71:0.124294 73:0.191714 74:0.0994152 
32 1:0.163866 5:0.203283 6:0.118852 9:0.0970464 10:0.0829876 11:0.17551 12:0.0877551 15:0.256198 19:0.189218 22:0.244898 24:0.202282 25:0.077551 30:0.0737705 35:0.11157 36:0.600812 41:0.283673 44:0.0423729 46:0.0375 48:0.096473 49:0.154812 52:0.115226 53:0.484581 55:0.443038 58:0.236965 62:0.12605 64:0.353469 65:0.104603 66:0.269388 67:0.179167 71:0.0909091 72:0.287478 73:0.168031 76:0.18107 78:0.117155 
1.3890735654974993 5:0.358645 6:0.25 7:0.429429 12:0.183761 13:0.321101 18:0.245455 19:0.0626123 21:0.894203 22:0.25641 29:0.541284 33:0.283951 36:0.212044 40:0.232143 41:0.198006 46:0.0803571 53:0.623516 58:0.236671 64:0.437814 69:0.19469 71:0.385965 73:0.136253 74:0.157407 
31.435233562641997 5:0.327673 6:0.143564 9:0.471795 10:0.100503 15:0.155 18:0.137755 19:0.129635 22:0.147783 24:0.244975 31:0.171692 34:0.105528 36:0.399698 37:0.153912 40:0.262626 41:0.114122 44:0.0515464 46:0.0454545 48:0.116834 52:0.139303 53:0.431562 55:0.179487 58:0.0969604 62:0.306122 64:0.601615 65:0.126904 66:0.325123 73:0.183253 77:0.430693 79:0.214286 81:0.0721393 
3.4085339348873345 5:0.224927 6:0.153439 7:0.518116 8:0.113158 9:0.379121 10:0.0537634 13:0.192308 17:0.313158 19:0.256163 20:0.336022 22:0.157895 25:0.1 30:0.0952381 33:0.174854 34:0.33871 36:0.391681 40:0.281081 41:0.365789 44:0.0552486 48:0.125 49:0.201087 52:0.148936 53:0.352976 54:0.263158 55:0.384615 57:0.135135 58:0.12887 64:0.53008 71:0.117647 73:0.211924 77:0.306878 79:0.228947 81:0.539894 
-2.6229344207642251 1:0.104839 2:0.164456 4:0.0769231 5:0.192129 6:0.0767196 8:0.170185 12:0.0567282 13:0.0943396 14:0.301075 16:0.134667 18:0.0725806 19:0.256867 22:0.237467 23:0.096817 25:0.0501319 30:0.047619 32:0.0348525 33:0.0876576 34:0.112 36:0.462058 38:0.072 40:0.0695187 42:0.156334 46:0.0481283 47:0.110818 48:0.31 49:0.0991957 50:0.0783784 51:0.372312 52:0.0742706 53:0.38406 54:0.131926 57:0.167112 58:0.186785 60:0.153034 61:0.148541 63:0.0738786 64:0.38312 65:0.201072 66:0.174142 67:0.114973 69:0.117333 70:0.212766 71:0.175532 73:0.189064 77:0.230159 79:0.114776 80:0.0848806 81:0.0384615 
-32 1:0.140171 3:0.0183628 4:0.0400331 5:0.249223 6:0.0640353 7:0.131749 8:0.00593267 9:0.0381637 10:0.0138122 11:0.0237307 12:0.053394 13:0.11615 14:0.0464473 15:0.0342447 16:0.0209254 17:0.344785 18:0.0821122 19:0.191976 21:0.0567826 22:0.0413907 23:0.161237 24:0.0134669 25:0.0104857 26:0.0930533 27:0.204225 29:0.0489491 30:0.00993652 31:0.160451 32:0.111388 33:0.064171 34:0.0232044 35:0.044739 36:0.344169 37:0.0417012 38:0.0298343 39:0.0679746 40:0.294557 41:0.102281 43:0.273254 45:0.0218473 46:0.03979 47:0.0733996 48:0.019268 50:0.0401107 52:0.0618443 53:0.399734 54:0.0827815 55:0.0387168 56:0.153804 57:0.0345399 58:0.17881 59:0.0715865 60:0.104029 61:0.0154611 62:0.0165883 63:0.0386313 64:0.490144 65:0.124378 66:0.0182119 67:0.0831721 68:0.0533628 69:0.0790055 70:0.0110467 71:0.036454 72:0.0835766 73:0.198148 74:0.00470263 75:0.00635008 76:0.0485919 77:0.0640353 78:0.0154782 79:0.192053 80:0.0176698 81:0.0240199 
-32 1:0.125536 3:0.0356606 4:0.154749 5:0.271587 6:0.0618337 7:0.102179 8:0.114483 9:0.0988185 10:0.0213904 11:0.0457934 12:0.13738 13:0.150376 14:0.180258 15:0.099359 16:0.081016 17:0.190096 18:0.0579399 19:0.152584 20:0.0668449 21:0.109747 22:0.0958466 23:0.0389541 25:0.0202343 26:0.324759 27:0.0464744 30:0.0575693 31:0.146168 32:0.0278671 33:0.176902 34:0.0224599 35:0.0865385 36:0.399661 38:0.028877 40:0.194861 41:0.0740149 42:0.186896 43:0.158316 44:0.0322581 45:0.16971 46:0.0385439 47:0.0745474 48:0.0994652 50:0.0935484 52:0.149413 53:0.475593 54:0.159744 55:0.075188 57:0.0133833 58:0.154518 59:0.079314 60:0.0926518 61:0.11953 62:0.0321888 63:0.0596379 64:0.428085 67:0.0920771 68:0.0515281 69:0.0705882 70:0.0854701 71:0.0705128 73:0.181672 74:0.0548387 76:0.187834 77:0.0309168 78:0.0300107 79:0.277955 80:0.102455 81:0.0154749 
-21.907914599677792 5:0.137372 8:0.286667 18:0.397059 19:0.375357 23:1 25:0.253333 30:0.486486 35:0.375 36:0.562574 37:0.443627 44:0.151515 48:0.327465 50:0.439394 53:0.42201 55:0.522388 58:0.106771 64:0.557182 65:0.724638 71:0.305556 73:0.194324 74:0.257576 77:0.391892 78:0.405797 80:0.438356 
-32 3:0.0694561 4:0.236735 5:0.242715 9:0.0962343 10:0.0411523 12:0.174089 13:0.146444 16:0.103909 17:0.240891 19:0.270775 22:0.121457 25:0.0769231 28:0.299458 32:0.107884 33:0.134503 35:0.110656 36:0.490204 38:0.111111 40:0.214876 41:0.0937922 44:0.0420168 46:0.0743802 51:0.577083 53:0.475149 54:0.202429 55:0.146444 57:0.0516529 58:0.153284 60:0.117409 63:0.0566802 64:0.570083 66:0.534413 70:0.163934 73:0.192514 74:0.0714286 75:0.0938776 77:0.117886 78:0.232365 79:0.176113 81:0.0591837 
-20.964766349819751 1:0.221906 4:0.0409605 5:0.268074 6:0.0409027 7:0.0677083 8:0.0908451 9:0.0327635 10:0.0141643 12:0.0605634 13:0.249288 14:0.0796586 15:0.0876945 16:0.143059 17:0.251408 18:0.192034 19:0.173007 20:0.0885269 22:0.0422535 23:0.103107 24:0.138102 25:0.0802817 26:0.143466 27:0.0615276 28:0.103902 31:0.290368 32:0.0369318 33:0.0935837 34:0.0892351 35:0.114569 36:0.253554 37:0.0858227 38:0.0382436 39:0.348936 40:0.147518 42:0.0826211 43:0.0698166 44:0.042796 46:0.0382979 47:0.0197183 48:0.065864 49:0.0525568 50:0.0827389 52:0.118644 53:0.451264 54:0.211268 55:0.299145 57:0.0531915 58:0.180186 60:0.0408451 63:0.0985915 64:0.442747 66:0.0929577 67:0.0609929 68:0.409027 69:0.0623229 70:0.0565771 71:0.0622348 73:0.163362 74:0.0727532 76:0.186441 77:0.327221 78:0.0397727 79:0.183803 80:0.180791 81:0.102401 
-26.918967969854343 5:0.267922 9:0.141975 11:0.252941 12:0.126471 19:0.31943 22:0.176471 24:0.293675 25:0.111765 27:0.260479 30:0.106509 31:0.205823 32:0.0792683 36:0.18627 37:0.185072 40:0.315152 42:0.716049 47:0.164706 48:0.28012 50:0.180124 52:0.166667 53:0.428251 54:0.294118 55:0.648148 57:0.227273 58:0.217044 60:0.170588 63:0.164706 64:0.539872 65:0.152439 68:0.285996 71:0.131737 73:0.172103 81:0.0863095 
-32 2:0.149038 4:0.139423 5:0.238864 6:0.0695444 7:0.347087 8:0.0514354 9:0.112195 10:0.0241546 12:0.102871 16:0.121981 19:0.251556 21:0.247196 22:0.0717703 23:0.175481 24:0.117754 25:0.136364 26:0.0817152 27:0.104819 29:0.143902 30:0.0431655 32:0.0315534 33:0.158958 34:0.0507246 36:0.422048 37:0.0733982 39:0.198547 40:0.062954 41:0.0554226 46:0.0435835 48:0.112319 50:0.0709046 53:0.408559 55:0.170732 56:0.339853 57:0.0605327 58:0.141165 59:0.269417 60:0.069378 62:0.0729927 63:0.0334928 64:0.459227 66:0.157895 67:0.104116 71:0.159036 72:0.111951 73:0.17793 75:0.0552885 77:0.139089 78:0.0679612 81:0.139423 
-0.40235065794729763 19:0.265628 25:1 30:1 32:1 36:0.662405 44:1 58:0.0695978 73:0.155651 
-32 1:0.146067 4:0.106618 5:0.254481 6:0.106227 8:0.156934 12:0.235401 16:0.0935185 19:0.125094 24:0.361111 25:0.0693431 26:0.125622 27:0.160517 28:0.269841 29:0.221805 31:0.126543 33:0.121249 36:0.37813 40:0.289963 41:0.0845499 43:0.362637 46:0.0334572 47:0.10219 52:0.102941 53:0.374871 58:0.162232 59:0.13806 60:0.211679 64:0.425811 67:0.159851 68:0.177045 73:0.173459 76:0.161765 77:0.106227 80:0.117647 
-6.6074944418023467 5:0.260078 9:0.190083 11:0.333333 19:0.209653 20:1 25:0.883721 32:0.105691 36:0.533881 53:0.577033 55:0.289256 58:0.341062 60:0.224806 64:0.454514 65:0.203252 66:0.511628 69:0.352 72:0.183352 73:0.23081 78:0.227642 
-32 1:0.274648 4:0.201856 5:0.213156 8:0.0496536 9:0.216471 10:0.02331 12:0.148961 13:0.164706 14:0.131455 15:0.072093 16:0.0588578 17:0.137413 18:0.190141 19:0.19599 22:0.0692841 23:0.25406 24:0.113636 26:0.0788447 27:0.202326 30:0.0833333 32:0.030445 33:0.153451 34:0.0979021 35:0.251163 36:0.393686 37:0.0708138 38:0.125874 40:0.242991 41:0.107005 42:0.272941 43:0.114583 44:0.0471698 45:0.185882 46:0.0841121 47:0.0969977 48:0.270979 50:0.0683962 52:0.12993 53:0.413547 57:0.0292056 58:0.0842099 60:0.133949 63:0.0969977 64:0.392408 66:0.457275 67:0.401869 69:0.205128 72:0.0540272 73:0.177096 76:0.408353 77:0.268519 
-32 4:1 5:0.373859 8:0.241573 9:0.283951 10:0.235294 19:0.329827 23:0.41954 33:0.373283 36:0.304736 41:0.520599 46:0.107143 48:0.820588 53:0.458346 58:0.163652 60:0.325843 64:0.658049 69:0.258824 73:0.229316 77:0.659091 
-7.2144163049034207 5:0.3267 7:0.358396 8:0.154676 9:0.351145 10:0.148148 19:0.227242 22:0.215827 24:0.361111 32:0.0977444 33:0.239009 35:0.198529 36:0.580183 41:1 46:0.201493 48:0.344444 53:0.521916 58:0.26988 60:0.208633 63:0.100719 64:0.461449 65:0.18797 66:0.47482 73:0.244325 76:0.321168 77:0.210145 81:0.105839 
-32 1:0.0776892 2:0.122288 3:0.0331337 4:0.0571992 5:0.225738 8:0.0422397 9:0.137725 10:0.019802 13:0.209581 14:0.223108 16:0.15 17:0.233792 18:0.10757 19:0.197103 21:0.202827 23:0.143984 25:0.0746562 26:0.133863 27:0.0859684 29:0.117764 31:0.0676568 32:0.0516899 33:0.261078 35:0.106719 36:0.362526 37:0.180279 38:0.160396 40:0.464286 41:0.0455141 42:0.231537 43:0.0974409 47:0.11002 50:0.116 52:0.0552268 53:0.51889 56:0.139 57:0.0496032 58:0.17911 63:0.0550098 64:0.555942 67:0.170635 68:0.0951444 69:0.0435644 71:0.0869565 72:0.0459284 73:0.186781 74:0.034 76:0.17357 78:0.055666 79:0.256385 81:0.0285996 
-32 1:0.19598 3:0.0838384 5:0.251493 8:0.104369 9:0.116162 10:0.0990099 12:0.104369 13:0.353535 16:0.125 17:0.288835 18:0.135678 19:0.192951 23:0.178922 27:0.214286 30:0.0878049 31:0.338284 34:0.10396 35:0.133005 36:0.328045 40:0.258706 41:0.337379 46:0.0895522 48:0.115099 53:0.521805 55:0.176768 56:0.352792 58:0.193691 60:0.140777 64:0.409809 68:0.235772 73:0.206744 
-32 5:0.307703 9:0.505495 19:0.403688 30:0.183673 33:0.335578 36:0.307366 41:0.468013 46:0.0957447 53:0.420473 57:0.132979 58:0.0785225 60:0.292929 64:0.540976 73:0.192143 77:0.295918 81:0.149485 
-22.794330843456773 1:0.095122 2:0.082392 3:0.0294522 4:0.109192 5:0.219052 6:0.0321081 7:0.0739673 8:0.0761567 9:0.147926 10:0.0288057 11:0.0856763 12:0.0856763 13:0.0776225 14:0.0496674 15:0.0274701 16:0.106304 17:0.0658623 18:0.0838137 19:0.198105 20:0.0553955 21:0.136656 22:0.0332079 23:0.048505 24:0.140428 25:0.012619 26:0.0895589 27:0.0867302 29:0.0523398 30:0.0358725 31:0.113561 32:0.0144092 33:0.102969 34:0.0372258 35:0.0657953 36:0.381136 37:0.040133 38:0.041879 39:0.0908688 40:0.16711 41:0.0615453 42:0.154358 43:0.0328831 44:0.015528 45:0.035041 46:0.0378989 47:0.0495904 48:0.0927321 49:0.049213 50:0.0450311 51:0.0921286 52:0.204651 53:0.411903 54:0.0774851 55:0.100909 56:0.15417 57:0.0803413 58:0.146499 59:0.049213 60:0.0706221 61:0.0372093 63:0.0495904 64:0.415686 65:0.0332521 66:0.10228 67:0.152482 68:0.107027 69:0.0438733 70:0.0886132 71:0.0682322 72:0.0103148 73:0.182478 74:0.0113132 75:0.00509413 76:0.116944 77:0.115589 78:0.0558634 79:0.0770423 80:0.0425249 81:0.0321152 
-10.212864288103765 1:0.4875 4:0.341176 5:0.233463 6:0.337209 19:0.162373 30:0.209302 35:0.642857 36:0.27096 39:1 41:0.266284 45:1 52:0.329412 53:0.366962 56:0.891026 58:0.213777 64:0.607983 72:0.27395 73:0.17594 79:1 
-31.771848331429595 4:0.0775401 5:0.261677 7:0.257658 8:0.0571809 13:0.0951087 16:0.135753 19:0.257285 20:0.336022 22:0.319149 23:0.195187 27:0.233244 30:0.048 36:0.288923 38:0.362903 39:0.221024 40:0.140162 41:0.739362 44:0.027248 46:0.0485175 48:0.0625 49:0.1 50:0.158038 52:0.0748663 53:0.476375 55:0.380435 56:0.189373 57:0.101078 58:0.457731 59:0.1 60:0.0771277 61:0.149733 63:0.0744681 64:0.543863 65:0.0675676 66:0.351064 73:0.231507 75:0.122995 77:0.0773333 79:0.115691 
-32 1:0.241486 4:0.176829 5:0.262873 7:0.147119 8:0.195455 9:0.0714286 10:0.0613497 13:0.108696 14:0.173375 16:0.154908 17:0.360606 19:0.261281 23:0.11128 24:0.14954 26:0.103909 27:0.133028 32:0.0401235 34:0.0644172 36:0.402711 37:0.0933953 41:0.140404 42:0.180124 46:0.0830769 48:0.213957 50:0.0903427 52:0.170732 53:0.469834 55:0.434783 56:0.433022 57:0.0384615 58:0.219005 59:0.114198 60:0.0878788 63:0.0848485 64:0.493943 65:0.231481 68:0.14691 69:0.0674847 73:0.190848 77:0.176292 78:0.0864198 79:0.131818 81:0.353659 
-32 1:0.0957447 2:0.0168891 3:0.013588 4:0.0789975 5:0.197584 6:0.0078976 7:0.0259976 8:0.122924 9:0.0564802 10:0.0408831 11:0.0351212 12:0.128778 13:0.0859482 14:0.122204 15:0.00844687 16:0.130758 17:0.0485979 18:0.0662848 19:0.221805 20:0.0340692 21:0.140062 22:0.0326708 23:0.0695996 24:0.079722 25:0.0103458 26:0.110172 27:0.0592643 28:0.0200617 29:0.0643929 30:0.0441176 31:0.130372 32:0.00354513 33:0.117585 34:0.0629599 35:0.0662125 36:0.416547 37:0.0658302 38:0.0294358 39:0.0670665 40:0.219738 41:0.0567656 42:0.0474761 43:0.0269608 44:0.00545852 45:0.0646658 46:0.0245365 47:0.0304928 48:0.133074 49:0.01009 50:0.0633188 52:0.167802 53:0.328715 54:0.0136129 55:0.0859482 56:0.132778 57:0.0715649 58:0.186528 60:0.0947454 61:0.0152547 63:0.0266812 64:0.380168 65:0.0272702 66:0.0359379 67:0.0820611 68:0.184277 69:0.0299809 70:0.0871935 71:0.053951 73:0.184075 74:0.00927948 75:0.0250613 76:0.107873 77:0.110566 78:0.0152713 79:0.118432 80:0.0435849 81:0.0987469 
-32 3:0.0498498 4:0.256637 5:0.182612 8:0.0630499 9:0.0690691 12:0.1261 13:0.42042 17:0.174487 18:0.0808383 19:0.217949 21:0.303343 23:0.10767 24:0.289318 26:0.200995 29:0.354354 32:0.038806 36:0.465804 38:0.0801187 39:0.244048 40:0.077381 41:0.0679374 45:0.237237 46:0.0535714 48:0.206973 50:0.0873494 53:0.526897 57:0.0372024 58:0.181155 60:0.085044 63:0.0821114 64:0.513016 65:0.0746269 69:0.195846 71:0.130178 73:0.186836 76:0.129794 77:0.170588 79:0.127566 81:0.0855457 
-32 1:0.119266 5:0.27492 6:0.0870871 7:0.145325 8:0.193114 9:0.0705521 10:0.030303 11:0.128743 12:0.0643713 13:0.107362 17:0.356287 18:0.165138 19:0.291903 20:0.189394 21:0.309739 25:0.0568862 27:0.26284 30:0.108108 32:0.0792683 33:0.0994677 34:0.0636364 35:0.163142 36:0.211271 38:0.163636 40:0.0790274 43:0.297297 44:0.0615385 48:0.140909 53:0.367025 57:0.0379939 58:0.212229 61:0.168675 63:0.0838323 64:0.529812 65:0.228659 66:0.197605 67:0.130699 68:0.145145 69:0.333333 70:0.120846 72:0.0701377 73:0.187407 74:0.0523077 76:0.26506 78:0.0853659 
-6.7398542626838376 5:0.62634 19:0.211638 36:0.633985 38:1 48:0.861111 53:0.612973 58:0.00848083 60:0.935484 64:0.120142 73:0.124534 77:0.966667 81:1 
-32 2:0.201954 4:0.141694 5:0.260667 10:0.0490196 12:0.0349026 13:0.115132 14:0.091954 17:0.193182 18:0.044335 19:0.15976 20:0.102124 21:0.167481 23:0.0594463 24:0.318627 25:0.0308442 26:0.220765 27:0.141925 29:0.0970395 30:0.0292683 31:0.0558279 32:0.0213115 33:0.0539322 34:0.0686275 35:0.176183 36:0.366484 39:0.134206 40:0.170213 41:0.0752165 45:0.259868 46:0.0441899 47:0.0454545 48:0.189951 50:0.286656 51:0.227422 52:0.0456026 53:0.503228 55:0.115132 56:0.228995 57:0.0204583 58:0.151302 60:0.0470779 62:0.0492611 63:0.0454545 64:0.486902 65:0.163934 66:0.107143 68:0.0785908 71:0.0717781 72:0.0758492 73:0.17004 76:0.143322 77:0.0943089 
-32 1:0.131757 3:0.0562712 5:0.279472 7:0.320988 8:0.0709571 9:0.233898 10:0.0668896 11:0.141914 12:0.0709571 13:0.237288 18:0.0912162 19:0.349665 20:0.20903 22:0.19802 31:0.11427 34:0.140468 36:0.403977 39:0.275168 40:0.261745 41:0.152915 42:0.19661 43:0.163907 44:0.0340136 45:0.267797 46:0.090604 47:0.0462046 49:0.124579 52:0.0930233 53:0.343664 54:0.165017 55:0.118644 57:0.293624 58:0.129107 62:0.101351 64:0.410907 65:0.0841751 67:0.144295 71:0.0733333 73:0.183532 78:0.0942761 79:0.143564 80:0.106312 
-32 1:0.252427 4:0.0923567 5:0.256249 6:0.184127 8:0.136076 9:0.0746753 10:0.0641026 16:0.0809295 17:0.188291 18:0.0873786 19:0.339338 22:0.28481 24:0.15625 26:0.108602 30:0.0571429 31:0.109509 34:0.0673077 36:0.375788 37:0.0976268 38:0.173077 40:0.250804 41:0.366561 43:0.157143 44:0.0651466 46:0.0868167 47:0.0443038 49:0.119355 52:0.089172 53:0.567992 54:0.474684 57:0.120579 58:0.202826 60:0.183544 61:0.178344 64:0.519009 65:0.0806452 66:0.417722 67:0.138264 68:0.153439 69:0.0705128 72:0.0741583 73:0.193194 74:0.110749 76:0.140127 78:0.0903226 79:0.137658 80:0.305732 
-32 1:0.152344 4:0.224371 5:0.266532 7:0.0929175 8:0.0414258 9:0.135029 10:0.0194175 14:0.109375 16:0.147087 18:0.158203 19:0.12135 21:0.198904 22:0.115607 23:0.0705996 25:0.0366089 26:0.065627 27:0.0843023 29:0.11546 30:0.034749 31:0.066343 32:0.0506823 33:0.064012 34:0.0815534 35:0.209302 36:0.294589 38:0.0524272 39:0.159533 40:0.101167 41:0.0892742 43:0.0955598 44:0.0196078 46:0.0350195 47:0.026975 48:0.0902913 50:0.170588 52:0.216634 53:0.478443 54:0.0963391 55:0.0684932 57:0.0243191 58:0.155749 63:0.026975 64:0.441632 65:0.0974659 66:0.127168 67:0.167315 68:0.0933076 69:0.0427184 70:0.155039 71:0.0852713 73:0.19685 75:0.0444874 76:0.255319 77:0.167954 78:0.109162 79:0.083815 81:0.0560928 
-32 3:0.0643411 5:0.346084 7:0.183333 8:0.0808271 9:0.0891473 13:0.271318 16:0.096374 18:0.312741 19:0.250001 25:0.0714286 26:0.129487 29:0.228682 31:0.130407 36:0.381843 37:0.116474 40:0.298851 41:0.0870927 46:0.0689655 47:0.0526316 48:0.177481 49:0.142308 50:0.11284 52:0.106061 53:0.549111 54:0.18797 57:0.0478927 58:0.169761 60:0.218045 63:0.0526316 64:0.508837 65:0.0961538 67:0.164751 69:0.0839695 71:0.1673 73:0.155815 76:0.333333 77:0.109434 80:0.121212 
-24.300052909389709 1:0.764706 4:0.183544 5:0.334222 9:0.151316 10:0.0641026 12:0.134375 15:0.394904 19:0.368165 24:0.3125 30:0.113208 31:0.438034 32:0.0844156 34:0.134615 36:0.290443 39:0.529032 53:0.401233 55:0.230263 56:0.460265 57:0.0806452 58:0.129479 59:0.24026 64:0.39717 67:0.277419 68:0.303983 70:0.254777 73:0.180655 
-32 1:0.16318 3:0.0521466 4:0.120708 5:0.258948 6:0.0301455 7:0.0498084 8:0.0223261 10:0.0104275 12:0.133956 15:0.0322917 16:0.105318 17:0.185358 18:0.084728 19:0.19668 20:0.0651721 21:0.214013 22:0.0311526 23:0.151925 24:0.0508342 25:0.01973 26:0.175897 27:0.135938 29:0.24712 30:0.018711 31:0.14251 32:0.0407524 33:0.137995 34:0.0218978 35:0.05625 36:0.417709 38:0.084463 40:0.108559 41:0.144341 42:0.121466 43:0.102911 44:0.0104822 45:0.0827225 46:0.0469729 47:0.0726895 48:0.145464 49:0.0386625 52:0.145682 53:0.480944 54:0.311526 55:0.146597 56:0.0728512 57:0.0391441 58:0.152996 60:0.0301142 61:0.0582726 63:0.101765 64:0.465252 65:0.130617 66:0.137072 67:0.0897704 68:0.0502426 69:0.114703 70:0.0833333 71:0.0229167 72:0.0242307 73:0.176146 74:0.0178197 75:0.0239334 76:0.183143 77:0.0602911 78:0.0292581 79:0.0903427 81:0.0150884 
-20.248996566156016 1:0.122257 5:0.223685 6:0.267692 9:0.072327 10:0.0310559 11:0.131902 15:0.0959752 16:0.156832 17:0.365031 18:0.0846395 19:0.24923 20:0.194099 21:0.317387 22:0.0920245 23:0.337963 27:0.134675 30:0.0553846 31:0.212215 32:0.040625 33:0.203817 34:0.0652174 35:0.0835913 36:0.311171 37:0.0945664 38:0.0838509 39:0.255452 40:0.161994 41:0.142127 43:0.152308 46:0.0560748 48:0.216615 52:0.17284 53:0.367875 54:0.306748 57:0.0778816 58:0.126807 59:0.115625 60:0.177914 63:0.0429448 64:0.495678 67:0.133956 68:0.74359 69:0.068323 70:0.247678 71:0.204334 72:0.215608 73:0.163074 77:0.0892308 80:0.0987654 
-32 1:0.0915493 2:0.143852 3:0.0390588 4:0.0672854 5:0.27838 6:0.134259 7:0.111632 8:0.0496536 9:0.162353 10:0.04662 11:0.0993072 13:0.0823529 15:0.144186 16:0.0588578 18:0.190141 19:0.191504 22:0.207852 24:0.113636 26:0.157689 28:0.170525 31:0.159285 32:0.030445 33:0.0767257 34:0.146853 36:0.350149 37:0.0708138 38:0.0629371 39:0.191589 40:0.182243 43:0.458333 48:0.162587 49:0.173302 52:0.194896 53:0.429937 54:0.115473 58:0.107947 60:0.200924 61:0.12993 63:0.0323326 64:0.475006 65:0.117096 66:0.30485 68:0.223765 69:0.0512821 71:0.0511628 72:0.0540272 73:0.182571 74:0.0400943 76:0.102088 77:0.201389 78:0.0655738 
-32 5:0.243077 6:0.325843 10:0.116279 11:0.477778 14:0.674699 19:0.312908 22:0.333333 23:0.414773 24:0.56686 27:1 31:0.397287 36:0.52104 44:0.123457 47:0.155556 48:0.270349 53:0.377755 58:0.0887563 64:0.239262 69:0.511628 73:0.140555 76:1 
-0.5892355514268578 1:0.624 5:0.298214 7:0.378307 10:0.15625 12:0.162879 13:0.282258 14:0.448 16:0.197266 18:0.216 19:0.32634 22:0.227273 26:0.267196 33:0.251684 36:0.532597 42:0.467742 44:0.0813008 52:0.430769 53:0.572701 57:0.0984252 58:0.0707468 60:0.219697 63:0.106061 64:0.529493 68:0.368957 73:0.183011 76:0.338462 79:0.659091 
-32 1:0.0651629 3:0.0277592 4:0.0482529 5:0.258268 6:0.0241064 7:0.0795771 8:0.107143 9:0.153846 10:0.0583333 12:0.0178571 13:0.263378 14:0.187135 15:0.0258118 16:0.063125 17:0.247093 18:0.0225564 19:0.24448 20:0.104167 22:0.0498339 23:0.273295 24:0.08125 25:0.0157807 26:0.0281024 27:0.108659 29:0.0493311 30:0.0149626 31:0.113889 32:0.0651085 33:0.0827796 34:0.07 35:0.134888 36:0.282227 37:0.0756057 38:0.045 39:0.205171 40:0.130108 41:0.230897 42:0.09699 43:0.0411471 44:0.0083682 46:0.0375313 47:0.0116279 48:0.019375 49:0.0926544 50:0.121339 52:0.0698835 53:0.379257 54:0.0415282 55:0.146321 56:0.348954 57:0.0834028 58:0.178596 59:0.0308848 60:0.0240864 61:0.139767 63:0.0232558 64:0.462125 65:0.0834725 67:0.0358632 68:0.120532 69:0.0366667 71:0.109908 72:0.0387449 73:0.204828 74:0.0142259 77:0.168745 78:0.0467446 80:0.159734 81:0.0482529 
-32 1:0.0629032 2:0.2976 4:0.1392 5:0.218797 6:0.0463259 7:0.153516 8:0.102871 9:0.11147 10:0.0642055 12:0.0685805 13:0.0565428 14:0.0903226 16:0.0810594 18:0.130645 19:0.149219 20:0.100321 22:0.0956938 23:0.0584 24:0.156501 25:0.0606061 27:0.0697115 28:0.117678 30:0.115016 31:0.0548422 32:0.0628019 33:0.158958 34:0.134831 35:0.0865385 36:0.414007 38:0.130016 40:0.209003 41:0.0369484 42:0.0936995 45:0.127625 46:0.0289389 48:0.111958 51:0.223387 53:0.480601 54:0.15949 55:0.113086 56:0.11246 57:0.0602894 58:0.130655 59:0.0595813 60:0.138756 63:0.0223285 64:0.410449 65:0.201288 66:0.105263 67:0.138264 68:0.386049 71:0.141026 72:0.0372571 73:0.199794 76:0.0704 77:0.185304 78:0.135266 79:0.208134 80:0.1024 81:0.0232 
-26.296508515727062 4:0.168605 5:0.259208 7:0.28373 8:0.123563 9:0.277108 19:0.209667 22:0.172414 23:0.424419 26:0.200397 30:0.104046 32:0.154762 35:0.157895 36:0.351147 38:0.158824 42:0.349398 43:0.286127 44:0.0606061 48:0.136765 52:0.162791 53:0.470419 55:0.210843 58:0.225141 59:0.440476 60:0.166667 64:0.452667 66:0.37931 67:0.254438 73:0.180022 74:0.10303 77:0.16763 79:0.5 81:0.0843023 
-32 5:0.161545 13:0.7 19:0.347739 34:0.388889 36:0.276626 38:0.5 48:0.430556 53:0.4304 58:0.216729 60:1 61:1 64:0.295273 67:0.811321 73:0.249867 80:0.571429 81:0.258929 
-32 1:0.214792 3:0.0261417 4:0.0227273 5:0.267593 6:0.181676 7:0.0749476 8:0.0672926 9:0.0724409 10:0.0470958 11:0.0672926 12:0.0336463 13:0.0826772 14:0.0440598 16:0.0198195 18:0.127459 19:0.261317 21:0.161181 22:0.0469484 23:0.143025 24:0.0765306 26:0.132338 27:0.0682353 31:0.0536368 32:0.0408805 33:0.0779864 34:0.0824176 35:0.105882 36:0.403258 38:0.0423862 39:0.12883 40:0.163394 41:0.145018 42:0.0456693 43:0.116288 44:0.0236407 45:0.186614 46:0.0494894 47:0.0547731 49:0.0290881 50:0.0914106 52:0.197492 53:0.425914 54:0.117371 55:0.110236 56:0.109535 57:0.108013 58:0.179421 60:0.0680751 62:0.0236035 63:0.0219092 64:0.44232 65:0.0589623 67:0.135114 68:0.0378491 69:0.0690738 70:0.0313725 71:0.0690196 72:0.036498 73:0.202787 74:0.0133964 75:0.0180251 76:0.172414 77:0.158966 78:0.0440252 79:0.13615 80:0.0250784 81:0.0113636 
-20.015795204075722 3:0.156604 5:0.736429 9:0.216981 10:0.185185 16:0.467593 19:0.115635 20:0.289352 22:0.136364 23:0.167431 24:0.225694 34:0.291667 36:0.669064 39:0.381395 53:0.564417 57:0.116279 58:0.208799 61:0.256881 64:0.667057 66:0.6 68:0.2207 70:0.184332 71:0.202765 73:0.219436 74:0.0805687 77:0.26484 
-32 1:0.407666 4:0.19863 5:0.312361 6:0.0989761 9:0.0804196 10:0.0689655 18:0.376307 19:0.150169 21:0.352169 22:0.102041 26:0.350694 27:0.298969 31:0.58908 33:0.452003 36:0.374664 40:0.359862 45:0.276224 46:0.124567 47:0.142857 48:0.0801724 50:0.101754 52:0.0958904 53:0.46016 58:0.1537 59:0.128472 64:0.457717 67:0.297578 68:0.16496 69:0.0758621 71:0.151203 72:0.318982 73:0.184617 74:0.0596491 76:0.452055 78:0.194444 79:0.295918 
-32 1:0.135889 2:0.0359004 3:0.0289367 5:0.260355 6:0.184606 7:0.0553299 8:0.0124349 9:0.147008 10:0.0405797 12:0.0124349 13:0.040674 14:0.195122 16:0.0585507 17:0.172065 18:0.0627178 19:0.213209 20:0.0362319 22:0.0520532 23:0.105675 24:0.197826 25:0.021978 26:0.0195396 27:0.252028 28:0.0426312 29:0.239977 30:0.03125 31:0.138647 32:0.0452699 33:0.0576441 34:0.0243478 35:0.0625724 36:0.308354 37:0.0525552 38:0.125217 39:0.0475638 40:0.467517 41:0.187584 43:0.0286458 44:0.00581395 46:0.0887471 47:0.00809717 48:0.0134783 50:0.0337209 52:0.0162131 53:0.535497 55:0.0813481 56:0.202035 57:0.101508 58:0.171979 59:0.0214742 60:0.0335454 61:0.0324262 63:0.00809717 64:0.493501 65:0.101567 66:0.0381724 69:0.0127536 70:0.023175 71:0.114716 72:0.04045 73:0.203166 75:0.0133179 77:0.151042 78:0.0162507 79:0.0251591 80:0.0370585 81:0.0419803 
-20.713771970692811 3:0.259375 5:0.486494 8:0.632353 16:0.191288 19:0.460167 24:0.369318 27:0.327068 34:0.477273 36:0.897423 37:0.23385 43:0.366667 53:1 56:0.547244 58:0.197036 64:0.741821 66:0.485294 68:0.358025 71:0.165414 73:0.219295 74:0.133858 
-32 3:0.123881 5:0.324254 8:0.454225 12:0.151408 16:0.365942 19:0.135869 23:0.260714 25:0.133803 29:0.440299 32:0.0955882 33:0.233959 34:0.152174 35:0.194245 36:0.242352 48:0.336957 49:0.272059 50:0.218045 52:0.2 53:0.581985 57:0.0912409 58:0.133206 64:0.474053 65:0.183824 71:0.158273 73:0.201478 75:0.164286 76:0.314286 77:0.205674 
-32 1:0.5 3:0.0426735 5:0.33478 6:0.146465 7:0.12191 9:0.354756 10:0.0254453 13:0.0899743 17:0.149874 18:0.0692308 19:0.166806 22:0.0755668 23:0.0924051 24:0.124046 26:0.086104 33:0.0836832 34:0.160305 35:0.0685279 36:0.548623 38:0.0687023 40:0.19898 41:0.233417 46:0.114796 47:0.0352645 50:0.0747423 52:0.283544 53:0.579672 55:0.0899743 57:0.159439 58:0.262536 60:0.219144 62:0.0769231 63:0.0352645 64:0.570555 65:0.0639386 66:0.166247 69:0.0559796 71:0.279188 72:0.0589512 73:0.182202 77:0.219697 79:0.109572 
-32 1:0.183099 3:0.0260188 4:0.0900621 5:0.284882 6:0.179845 7:0.0744792 8:0.0665635 9:0.10815 11:0.0665635 13:0.219436 14:0.262911 15:0.0482115 16:0.0786604 18:0.211268 19:0.249808 20:0.194704 22:0.0464396 23:0.056677 24:0.0759346 25:0.0882353 26:0.0526042 27:0.0676516 29:0.0924765 31:0.0532191 33:0.0514276 34:0.0654206 35:0.167963 36:0.403586 37:0.0944184 38:0.0420561 39:0.127925 40:0.24337 41:0.107585 43:0.153488 44:0.0156986 46:0.0982839 47:0.0433437 48:0.0724299 50:0.136578 52:0.173913 53:0.549513 54:0.232198 55:0.0548589 57:0.0780031 58:0.214914 59:0.0578125 60:0.0448916 62:0.0938967 63:0.130031 64:0.469043 65:0.0390625 66:0.204334 67:0.268331 69:0.0685358 71:0.0684292 72:0.0361579 73:0.185173 76:0.136646 77:0.0899225 78:0.13125 79:0.0673375 80:0.0993789 81:0.0225155 
-13.163752075396811 5:0.261402 6:0.212844 8:0.0393773 9:0.171004 10:0.0369004 16:0.0465867 17:0.217949 18:0.0500928 19:0.259051 21:0.189032 22:0.0549451 23:0.201287 24:0.0899446 25:0.0347985 28:0.135168 31:0.0630381 32:0.0240741 35:0.0994475 36:0.709965 37:0.167904 38:0.149446 40:0.336414 41:0.169719 46:0.0998152 52:0.102941 53:0.54891 54:0.18315 55:0.195167 56:0.258845 57:0.161738 58:0.227226 59:0.137037 63:0.0512821 64:0.599233 65:0.0462963 67:0.238447 68:0.088685 69:0.121771 71:0.0810313 72:0.0856092 73:0.178994 74:0.0949721 76:0.0808824 77:0.212844 79:0.0796703 
-32 5:0.328581 6:0.18239 13:0.230263 16:0.323718 19:0.217927 21:0.650844 22:0.1875 23:0.693038 31:0.219017 34:0.134615 36:0.486157 40:0.167742 43:0.311321 46:0.116129 48:0.149038 53:0.661149 57:0.16129 58:0.201568 63:0.0875 64:0.514412 71:0.140127 73:0.166951 76:0.556962 80:0.202532 
-32 1:0.171429 2:0.134783 4:0.0630435 5:0.279348 6:0.125813 7:0.209064 8:0.0465368 9:0.202643 14:0.123077 16:0.055131 17:0.128788 19:0.133264 20:0.136463 23:0.0793478 24:0.106441 25:0.0822511 27:0.0947712 29:0.129956 30:0.0390456 31:0.149199 32:0.0285088 33:0.0719096 34:0.0917031 35:0.117647 36:0.348513 38:0.117904 39:0.179431 40:0.170678 41:0.150433 42:0.127753 43:0.107375 44:0.0220751 47:0.0606061 48:0.101528 52:0.182609 53:0.470485 54:0.324675 56:0.153422 57:0.109409 58:0.192371 60:0.0627706 62:0.0659341 63:0.030303 64:0.428088 65:0.0548246 69:0.0480349 70:0.087146 71:0.0479303 73:0.184204 76:0.0956522 77:0.125813 
-6.2998828574907115 1:0.239264 2:0.369048 5:0.230749 9:0.141975 18:0.165644 19:0.246425 22:0.352941 23:0.434524 29:0.364198 30:0.106509 35:0.161677 36:0.289943 40:0.157576 42:0.358025 43:0.292899 47:0.164706 50:0.180124 51:0.849693 52:0.333333 53:0.501242 54:0.294118 58:0.134503 60:0.170588 61:0.333333 64:0.392528 66:0.776471 68:0.285996 70:0.239521 73:0.179528 74:0.10559 77:0.343195 
-1.231786684144148 1:0.235887 4:0.0578842 5:0.290025 6:0.0577689 7:0.191818 8:0.0427435 10:0.0400802 12:0.0854871 14:0.112903 15:0.062 16:0.101202 19:0.226985 20:0.375752 22:0.0596421 23:0.0728543 24:0.0976954 25:0.0755467 26:0.0677398 30:0.0717131 32:0.0261569 35:0.054 36:0.494912 38:0.0541082 40:0.104418 42:0.468687 46:0.0361446 47:0.083499 48:0.186373 51:0.279234 52:0.335329 53:0.475602 54:0.0994036 56:0.281377 57:0.0753012 58:0.166873 59:0.0744467 60:0.172962 62:0.0604839 63:0.027833 64:0.440038 67:0.0863454 69:0.0881764 70:0.08 73:0.182485 74:0.034413 76:0.0878244 78:0.112676 79:0.172962 80:0.191617 81:0.0868263 
-32 1:0.0337079 2:0.0533563 4:0.124785 5:0.223781 6:0.049871 7:0.0823258 10:0.0258621 11:0.0369416 12:0.0369416 13:0.0302768 14:0.145203 15:0.0534022 16:0.0435345 17:0.408935 18:0.140017 19:0.23039 20:0.0538793 21:0.353987 23:0.0942341 26:0.116292 27:0.149871 29:0.102076 30:0.0309544 31:0.14727 32:0.0336788 33:0.171249 35:0.0697674 36:0.360405 37:0.0260732 38:0.0465517 39:0.141501 40:0.246764 42:0.150519 43:0.0851247 44:0.00865801 45:0.205017 46:0.0155306 47:0.0601375 48:0.0200431 50:0.0753247 52:0.0963855 53:0.38014 54:0.0429553 55:0.151384 56:0.240693 57:0.0323555 58:0.142846 59:0.0639033 60:0.0747423 62:0.0518583 63:0.0120275 64:0.519438 65:0.0647668 67:0.0742019 68:0.0415592 69:0.0568966 70:0.0344531 71:0.0378984 73:0.185729 74:0.0147186 75:0.0197935 76:0.0757315 77:0.049871 79:0.149485 80:0.0275387 81:0.0124785 
-32 1:0.105405 3:0.0899729 5:0.294131 6:0.308511 9:0.186992 13:0.189702 14:0.151351 16:0.0676944 18:0.072973 19:0.208247 23:0.194667 24:0.261394 25:0.0503979 26:0.0907457 27:0.11631 28:0.195922 29:0.159892 31:0.0915996 33:0.0881226 34:0.112601 35:0.144385 36:0.590876 38:0.0723861 40:0.27957 41:0.1229 46:0.0725806 49:0.0997305 50:0.157609 52:0.224 53:0.503236 55:0.189702 57:0.168011 58:0.167693 60:0.230769 62:0.0810811 64:0.42708 66:0.175066 68:0.128546 69:0.0589812 71:0.117647 72:0.0620952 73:0.181861 75:0.0613333 77:0.0771277 
-6.3496588777541323 1:0.0628019 2:0.0990415 3:0.0535484 5:0.255598 7:0.0766345 8:0.0342357 9:0.0370968 10:0.0480769 12:0.0684713 13:0.0564516 14:0.0901771 16:0.0809295 17:0.473726 18:0.130435 19:0.249547 22:0.0477707 23:0.116613 24:0.15625 29:0.0951613 31:0.328526 32:0.0209003 35:0.2592 36:0.450524 38:0.0432692 40:0.250401 41:0.110669 44:0.0323102 46:0.0722311 47:0.044586 48:0.149038 50:0.0936995 52:0.178914 53:0.405782 54:0.0796178 55:0.0564516 56:0.112278 57:0.0601926 58:0.14674 60:0.138535 61:0.0894569 63:0.089172 64:0.506213 66:0.210191 67:0.207063 68:0.154173 71:0.0352 73:0.203822 75:0.0367412 76:0.0702875 77:0.046252 78:0.0900322 79:0.207803 81:0.0926518 
-32 1:0.052139 3:0.0222222 4:0.115538 5:0.230287 7:0.254562 8:0.0854305 9:0.0307898 10:0.0266312 12:0.0569536 15:0.0412234 16:0.134487 18:0.0721925 19:0.253552 20:0.0832224 22:0.0397351 27:0.462766 29:0.0789826 30:0.0238727 32:0.034713 33:0.440029 34:0.0838881 35:0.107713 36:0.356655 37:0.0806595 40:0.173333 41:0.122737 42:0.0776439 43:0.1313 46:0.048 48:0.154794 49:0.0493992 50:0.077748 53:0.422665 55:0.23427 57:0.05 58:0.132331 60:0.0768212 61:0.0743692 63:0.0370861 64:0.507096 65:0.100134 67:0.114667 68:0.128205 69:0.0585885 71:0.117021 73:0.186394 74:0.0227882 75:0.0305445 76:0.0584329 77:0.153846 78:0.11215 81:0.0192563 
-32 1:0.178082 2:0.0403121 3:0.0108355 4:0.0377113 5:0.237364 6:0.131904 7:0.124294 8:0.0418831 9:0.0750653 10:0.0585938 11:0.0279221 13:0.11423 14:0.0730594 15:0.0201692 16:0.0164388 17:0.231818 18:0.105675 19:0.237743 21:0.133723 22:0.0779221 23:0.118661 24:0.222168 25:0.0123377 26:0.021947 27:0.113208 29:0.192559 30:0.0116959 31:0.0444878 32:0.0508475 33:0.0647186 34:0.0957031 35:0.0175667 36:0.396955 37:0.0393564 38:0.0527344 39:0.160261 40:0.254072 41:0.150433 42:0.037859 43:0.160819 44:0.019595 46:0.0469055 47:0.0272727 48:0.0302734 49:0.0482399 50:0.0378837 52:0.0910273 53:0.454229 54:0.0324675 55:0.0685379 56:0.272371 57:0.0732899 58:0.170804 59:0.0241199 60:0.0753247 62:0.0391389 63:0.00909091 64:0.428209 65:0.0162973 66:0.0428571 67:0.112052 68:0.0314057 69:0.0286458 70:0.0260247 71:0.0858816 72:0.0757013 73:0.201981 75:0.029909 76:0.114434 77:0.131904 78:0.0547588 79:0.0282468 80:0.0208062 81:0.0377113 
-32 1:0.0822785 3:0.0350951 5:0.242264 6:0.0604167 8:0.134096 9:0.145877 12:0.0893971 15:0.0648536 16:0.052935 17:0.371102 18:0.227848 19:0.216419 20:0.131027 22:0.0623701 23:0.0762004 24:0.102201 26:0.0708772 27:0.182008 29:0.124736 31:0.286513 33:0.138138 34:0.132075 36:0.296257 40:0.163866 45:0.167019 46:0.0378151 47:0.029106 48:0.146226 49:0.0778947 52:0.0584551 53:0.403201 54:0.10395 55:0.147992 57:0.131303 58:0.175936 60:0.0602911 62:0.126582 64:0.448091 65:0.0526316 67:0.271008 68:0.402778 71:0.1841 72:0.0486132 73:0.187551 75:0.0480167 77:0.241667 81:0.0605428 
-32 4:0.367089 5:0.12923 9:0.315068 15:0.397436 17:0.734568 18:0.364865 19:0.0743119 22:0.37037 27:0.557692 30:0.225 31:0.443723 36:0.747186 52:0.35443 53:0.0730012 54:0.617284 58:0.199027 60:0.358025 61:0.708861 64:0.354885 65:0.333333 67:0.565789 72:0.294756 73:0.240304 
-32 1:0.118541 3:0.10122 4:0.0868263 5:0.196779 10:0.0903614 12:0.191964 18:0.0820669 19:0.135898 20:0.188253 26:0.20404 33:0.395503 34:0.063253 35:0.0810811 36:0.192136 38:0.0813253 39:0.495468 40:0.0785498 41:0.0689484 46:0.0271903 47:0.166667 48:0.21009 50:0.17737 52:0.251497 53:0.323166 54:0.297619 55:0.106707 56:0.212538 57:0.113293 58:0.112241 64:0.425302 65:0.0757576 68:0.144279 70:0.12012 71:0.0660661 73:0.176912 75:0.0688623 76:0.131737 81:0.13024 
-32 3:0.0161793 4:0.0843023 5:0.274155 6:0.0842207 8:0.103965 9:0.0672515 10:0.0485437 13:0.0682261 14:0.381694 15:0.150339 16:0.147087 17:0.0575435 19:0.306968 20:0.242718 21:0.0996447 22:0.0580271 24:0.0946602 25:0.0183752 27:0.168768 29:0.11501 30:0.017425 31:0.066343 32:0.0252918 33:0.0963894 34:0.0407767 35:0.0523763 36:0.418196 37:0.0881207 38:0.0262136 40:0.27794 41:0.201644 42:0.0565302 43:0.287512 44:0.0097561 45:0.0769981 46:0.0349854 48:0.0677184 49:0.0359922 50:0.0565854 52:0.0542636 53:0.478248 55:0.0682261 56:0.0678049 57:0.0607386 58:0.189549 59:0.107977 60:0.0560928 63:0.040619 64:0.429267 65:0.0243191 66:0.12766 67:0.0835763 68:0.0467893 69:0.0213592 70:0.0775946 71:0.085354 73:0.195235 76:0.0852713 77:0.112294 78:0.0544747 81:0.0562016 
-32 4:0.103203 5:0.266448 8:0.0381206 9:0.124101 10:0.0535714 14:0.100539 16:0.135268 19:0.13786 20:0.111607 22:0.0531915 24:0.0870536 25:0.0336879 26:0.181004 29:0.42446 30:0.0319716 31:0.122024 33:0.235619 34:0.15 35:0.0481283 36:0.47243 37:0.108318 38:0.0482143 40:0.0930233 41:0.0410757 43:0.175844 44:0.018018 46:0.0322004 47:0.0248227 48:0.124554 52:0.24911 53:0.487274 55:0.188849 57:0.0670841 58:0.143784 60:0.102837 63:0.0248227 64:0.432401 66:0.117021 68:0.171699 69:0.0392857 70:0.0713012 72:0.0414337 73:0.195154 74:0.0612613 75:0.0409253 81:0.0258007 
-32 3:0.0421855 4:0.03657 5:0.297061 7:0.241656 8:0.0811321 9:0.0876747 10:0.0379267 12:0.108176 13:0.0444727 16:0.127686 19:0.218615 22:0.0377358 23:0.138083 24:0.123262 27:0.219697 29:0.0749682 31:0.0431943 32:0.0494297 33:0.208945 34:0.0530973 35:0.0340909 36:0.430981 38:0.034134 40:0.362025 41:0.0291405 43:0.24937 46:0.0227848 47:0.0176101 48:0.0587863 50:0.0368957 52:0.035309 53:0.544753 54:0.0628931 55:0.133418 57:0.0474684 58:0.177679 59:0.0468948 60:0.072956 62:0.0761421 64:0.543806 65:0.0316857 66:0.0830189 68:0.0608732 69:0.0834387 71:0.0555556 73:0.213698 74:0.0216285 75:0.116015 77:0.0365239 79:0.054717 80:0.0403531 81:0.054855 
-32 1:0.111429 4:0.0816901 5:0.305969 6:0.162921 7:0.135802 8:0.120448 15:0.175141 17:0.666667 18:0.154286 19:0.176764 20:0.177054 22:0.0840336 25:0.0532213 27:0.122881 30:0.101124 31:0.0967894 32:0.037037 33:0.186119 35:0.0762712 36:0.288592 38:0.152975 40:0.147727 41:0.0648926 47:0.0784314 48:0.131728 50:0.0833333 52:0.315493 53:0.521167 55:0.200573 58:0.159578 60:0.0812325 61:0.157746 63:0.0392157 64:0.396562 66:0.184874 67:0.122159 68:0.407303 69:0.0623229 71:0.0621469 72:0.131187 73:0.17883 75:0.0647887 76:0.371831 77:0.162921 79:0.121849 81:0.0408451 
-32 2:0.0739857 4:0.173031 5:0.288715 6:0.0691299 7:0.171463 8:0.0255952 9:0.0829327 10:0.0119617 12:0.0511905 13:0.0841346 14:0.0672269 16:0.0302033 17:0.2125 18:0.0648259 19:0.241782 22:0.0714286 23:0.0435561 24:0.0583134 25:0.022619 26:0.0807354 27:0.155914 29:0.21274 31:0.122608 32:0.0467626 33:0.0395503 34:0.0502392 35:0.16129 36:0.475701 37:0.0362145 38:0.0322967 39:0.196407 40:0.653892 43:0.0589988 44:0.0120337 45:0.189904 46:0.0215569 47:0.0666667 48:0.027811 49:0.0443645 50:0.0348977 52:0.0334129 53:0.566978 56:0.0836342 57:0.10479 58:0.135317 63:0.05 64:0.411065 65:0.029976 66:0.0785714 67:0.154491 68:0.0576083 69:0.0789474 70:0.0477897 71:0.0525687 72:0.0277872 73:0.183888 76:0.210024 77:0.103695 78:0.100719 79:0.155357 80:0.0381862 81:0.0692124 
-32 1:0.0544693 2:0.0862909 4:0.0605428 5:0.23103 6:0.0806676 7:0.299372 8:0.0298819 9:0.0642907 10:0.0348432 11:0.0597637 12:0.0149409 13:0.122292 14:0.0391061 15:0.0647632 16:0.0527875 17:0.0413482 18:0.0188547 19:0.245333 20:0.304878 22:0.0208478 23:0.0508003 24:0.0339721 25:0.0924253 26:0.0234938 27:0.36351 30:0.0375522 31:0.142857 32:0.0181438 33:0.0923481 34:0.0439024 35:0.0188022 36:0.382522 37:0.0842644 38:0.0376307 40:0.181311 41:0.0643966 42:0.0810622 43:0.0688456 44:0.020979 46:0.0376569 47:0.00972898 48:0.0810105 49:0.0516399 50:0.0608392 52:0.0389701 53:0.483572 54:0.104239 55:0.293501 57:0.0435844 58:0.164916 60:0.0806115 62:0.0209497 63:0.00972898 64:0.39802 65:0.0872296 66:0.0917304 67:0.0599721 68:0.100834 69:0.061324 71:0.0306407 72:0.0162044 73:0.192333 74:0.0237762 76:0.122477 77:0.0806676 78:0.0195394 79:0.0604587 80:0.0445372 81:0.151357 
-18.219585210177399 1:0.113043 2:0.178846 3:0.0481625 4:0.0557692 5:0.246708 6:0.139289 7:0.0460103 8:0.165067 9:0.0889749 10:0.0192678 11:0.0825336 12:0.0412668 13:0.0676983 14:0.0541063 15:0.0895091 16:0.0729769 17:0.171305 18:0.0782609 19:0.220305 20:0.0602119 21:0.0988782 22:0.0287908 23:0.0701923 24:0.187861 25:0.0547025 26:0.0974903 27:0.0837344 28:0.0707653 29:0.17118 30:0.0345821 31:0.0658317 32:0.0376448 33:0.0637663 34:0.0809249 35:0.0779596 36:0.331281 38:0.0780347 39:0.0790743 40:0.150434 41:0.0444658 42:0.0560928 43:0.0951009 44:0.0290416 45:0.0764023 46:0.00867888 47:0.0134357 48:0.0895954 49:0.0357143 50:0.168441 51:0.133816 52:0.107692 53:0.397791 55:0.0676983 56:0.13456 57:0.084378 58:0.156852 59:0.0357143 60:0.139155 61:0.0538462 62:0.057971 63:0.0806142 64:0.407108 66:0.126679 67:0.0414658 68:0.417867 71:0.0635226 72:0.0223901 73:0.1824 74:0.0658277 76:0.0846154 77:0.222863 78:0.0540541 79:0.0834933 81:0.0278846 
-32 1:0.242991 3:0.051875 5:0.274074 10:0.0308642 12:0.131098 13:0.21875 14:0.174455 15:0.0953846 16:0.233796 18:0.252336 19:0.132007 22:0.0914634 23:0.111963 26:0.104555 27:0.267692 31:0.105453 35:0.249231 36:0.372796 38:0.166667 40:0.0804954 46:0.0557276 47:0.128049 48:0.143519 50:0.0909091 53:0.501548 55:0.109375 56:0.217868 57:0.0386997 58:0.219762 60:0.0884146 62:0.0934579 63:0.0853659 64:0.438598 68:0.147808 69:0.0679012 70:0.123077 71:0.135385 73:0.20054 74:0.159875 76:0.269939 77:0.088685 79:0.397866 
-24.135500381225331 3:0.0422392 4:0.145363 5:0.262406 6:0.0725 8:0.053616 9:0.234097 10:0.0251889 13:0.0890585 14:0.284264 16:0.063602 17:0.296758 19:0.143049 20:0.314861 21:0.257728 22:0.224439 23:0.274436 24:0.245592 25:0.0473815 28:0.184167 30:0.09 32:0.0329114 33:0.0828484 34:0.105793 36:0.208335 37:0.229695 38:0.0680101 39:0.207071 40:0.262626 41:0.0577722 44:0.0510204 46:0.0454545 47:0.0349127 48:0.0585642 49:0.187342 53:0.478595 54:0.124688 55:0.0890585 57:0.22096 58:0.103749 59:0.0936709 60:0.144638 63:0.0349127 64:0.441674 66:0.658354 69:0.0554156 71:0.221106 73:0.164612 74:0.0433673 77:0.29 80:0.240602 81:0.0726817 
-27.246068777599785 4:0.153439 5:0.329048 8:0.112565 9:0.251366 14:0.304348 18:0.146739 19:0.304079 25:0.0994764 26:0.181982 27:0.231383 29:0.322404 36:0.22737 39:0.44086 40:0.27957 44:0.0549451 46:0.0483871 47:0.0732984 50:0.159341 52:0.148148 53:0.400953 55:0.191257 57:0.268817 58:0.132555 59:0.2 60:0.151832 63:0.0732984 64:0.376901 68:0.254386 69:0.117647 71:0.117021 73:0.197665 78:0.151351 
-32 1:0.182243 3:0.0517941 5:0.261532 6:0.0447531 7:0.0741317 8:0.0331279 9:0.0717629 10:0.0310078 12:0.0993837 13:0.0546022 14:0.0872274 16:0.0782946 17:0.183359 18:0.0420561 19:0.253834 20:0.0968992 24:0.151163 27:0.0673375 29:0.0920437 31:0.105943 32:0.0404355 34:0.0325581 35:0.125387 36:0.327234 38:0.0837209 39:0.127329 40:0.201863 41:0.0356959 43:0.0763889 44:0.03125 46:0.0279503 48:0.0360465 49:0.0575428 51:0.215732 52:0.0432767 53:0.462478 54:0.0770416 55:0.163807 56:0.108594 57:0.0194099 58:0.182616 59:0.115086 60:0.0893683 61:0.0865533 63:0.0431433 64:0.434725 65:0.0388802 66:0.508475 67:0.13354 68:0.0745885 69:0.0341085 71:0.0340557 72:0.0359903 73:0.154766 74:0.0265625 76:0.0680062 77:0.223765 78:0.0435459 79:0.134052 80:0.049459 81:0.0672334 
-32 1:0.101036 2:0.317136 5:0.234745 6:0.147959 8:0.164122 10:0.0514139 11:0.21883 12:0.0547074 13:0.0909091 14:0.145078 15:0.0794872 17:0.151399 19:0.319109 22:0.152672 23:0.0933504 26:0.086994 29:0.153247 30:0.0459184 31:0.175664 32:0.0671835 33:0.0845349 36:0.325987 37:0.078152 38:0.138817 39:0.21134 40:0.201031 42:0.150649 47:0.0356234 49:0.0956072 50:0.0755208 52:0.143223 53:0.474062 55:0.0909091 56:0.361979 57:0.064433 58:0.277953 59:0.0956072 60:0.0737913 64:0.477617 67:0.110825 68:0.246599 69:0.0565553 71:0.0564103 72:0.0595543 73:0.182732 78:0.217054 81:0.0370844 
-32 2:0.23221 4:0.108614 5:0.32315 6:0.216418 7:0.181242 8:0.0799257 9:0.0881226 10:0.113208 13:0.268199 16:0.285849 17:0.442379 18:0.103053 19:0.219461 22:0.111524 24:0.183962 27:0.490602 33:0.247005 34:0.158491 35:0.101504 36:0.56056 37:0.11514 40:0.0984848 41:0.0861214 42:0.222222 43:0.184701 48:0.175472 50:0.111538 52:0.104869 53:0.655013 54:0.185874 55:0.1341 57:0.094697 58:0.202492 64:0.650424 65:0.095057 68:0.180348 70:0.150376 72:0.261637 73:0.188773 74:0.0653846 77:0.108209 79:0.16171 81:0.0543071 
-32 1:0.0474453 3:0.0202192 4:0.070133 5:0.245676 6:0.105072 7:0.115836 9:0.0560292 10:0.0727273 13:0.0426309 14:0.136253 15:0.112591 17:0.21532 18:0.0328467 19:0.23017 20:0.151515 21:0.124345 22:0.0361882 23:0.132406 25:0.0458384 26:0.0409072 29:0.0718636 32:0.0315917 33:0.24045 34:0.0254545 36:0.400892 37:0.146796 38:0.0654545 39:0.0995146 40:0.18932 41:0.195617 43:0.298913 44:0.0121951 45:0.0962241 46:0.0436893 47:0.0675513 48:0.0281818 49:0.0449575 50:0.0353659 52:0.0677146 53:0.444111 54:0.0603136 55:0.0852619 56:0.0847561 57:0.0303398 58:0.157102 59:0.0449575 60:0.0699638 63:0.0337756 64:0.475214 66:0.079614 67:0.104369 68:0.116747 69:0.106667 71:0.106538 72:0.0563137 73:0.200472 76:0.212817 77:0.175121 78:0.0340219 79:0.104946 80:0.0386941 81:0.0350665 
-32 1:0.289963 4:0.317518 5:0.294861 6:0.210909 7:0.176543 9:0.0858209 12:0.0778986 15:0.113553 17:0.431159 18:0.200743 19:0.164152 25:0.137681 26:0.124691 31:0.251225 32:0.0481481 35:0.0989011 36:0.854427 38:0.0992647 40:0.191882 41:0.0839372 43:0.36 44:0.0749064 46:0.132841 47:0.101449 50:0.108614 52:0.10219 53:0.600112 54:0.543478 57:0.0461255 58:0.27687 60:0.105072 62:0.223048 63:0.152174 64:0.630613 67:0.634686 71:0.0805861 72:0.339937 73:0.163772 75:0.0839416 
-32 1:0.189781 5:0.291411 8:0.154306 9:0.168293 12:0.102871 13:0.0853659 15:0.0746988 16:0.0609903 17:0.142344 19:0.183366 22:0.0717703 23:0.0877404 24:0.235507 27:0.104819 29:0.143902 30:0.0431655 31:0.0825282 33:0.158958 34:0.0507246 35:0.0650602 36:0.443709 38:0.0652174 39:0.198547 40:0.251816 41:0.166268 42:0.141463 46:0.0653753 47:0.0334928 48:0.0561594 49:0.0898058 53:0.395772 55:0.170732 56:0.169927 57:0.121065 58:0.245728 60:0.138756 64:0.464266 67:0.104116 71:0.106024 73:0.211546 75:0.0552885 77:0.347722 80:0.153846 81:0.418269 
-12.583441868065945 1:0.304688 4:0.43609 5:0.219971 8:0.637037 11:0.318519 13:0.275591 19:0.310417 22:0.222222 26:0.260982 35:0.204545 36:0.383441 41:0.34321 42:0.456693 46:0.207692 50:0.230159 52:0.421053 53:0.488158 57:0.0961538 58:0.179539 63:0.103704 64:0.34898 68:0.360697 71:0.166667 73:0.248398 
-11.299225824958757 2:0.488189 5:0.283101 9:0.190083 11:0.333333 12:0.333333 14:0.459016 19:0.214742 22:0.232558 23:0.287402 33:0.257537 35:0.214286 36:0.41351 46:0.145161 49:0.300813 50:0.241667 52:0.220472 53:0.558116 54:0.775194 58:0.168576 60:0.224806 61:0.440945 64:0.454015 67:0.346774 73:0.235218 76:0.346457 
-32 1:0.264706 2:0.138702 5:0.299988 6:0.0647321 8:0.0478842 9:0.104308 10:0.0674157 12:0.143653 13:0.15873 15:0.0695067 16:0.0567416 17:0.132517 19:0.335396 21:0.230052 23:0.0816555 26:0.075997 27:0.0975336 32:0.0586907 33:0.0739916 34:0.047191 35:0.121076 36:0.356789 37:0.0682504 38:0.0606742 40:0.292793 46:0.0405405 47:0.0311804 48:0.104494 49:0.0835214 52:0.250559 53:0.476375 54:0.222717 55:0.0793651 57:0.0844595 58:0.179247 59:0.0835214 60:0.064588 62:0.0678733 63:0.0623608 64:0.372884 68:0.323661 69:0.0988764 70:0.0896861 73:0.16758 77:0.194196 78:0.0632054 79:0.096882 80:0.143177 81:0.0324385 
-32 1:0.286765 4:0.140436 5:0.261626 7:0.233089 8:0.103614 9:0.169533 10:0.0243309 14:0.137255 17:0.286747 18:0.0661765 19:0.25244 20:0.152068 23:0.0883777 27:0.211165 28:0.177939 31:0.166261 32:0.0317848 33:0.0800535 36:0.443014 38:0.0656934 39:0.4 40:0.0634146 41:0.16747 42:0.142506 45:0.194103 46:0.0658537 47:0.0337349 53:0.457595 54:0.120482 55:0.0859951 57:0.0609756 58:0.196393 59:0.0904645 63:0.0337349 64:0.492604 71:0.213592 72:0.0563819 73:0.169744 76:0.106538 77:0.0700483 79:0.104819 80:0.154964 81:0.035109 
-32 4:0.15847 5:0.260486 6:0.157609 8:0.116216 9:0.129944 10:0.165746 11:0.464865 17:0.321622 18:0.303371 19:0.185282 25:0.205405 26:0.188082 30:0.0978261 31:0.188766 34:0.116022 36:0.320424 42:0.327684 47:0.0756757 48:0.128453 49:0.206704 52:0.153005 53:0.441183 54:0.27027 55:0.39548 57:0.0694444 58:0.179038 59:0.206704 64:0.362048 65:0.139665 66:0.356757 69:0.121547 70:0.21978 71:0.120879 73:0.166337 76:0.480874 
-32 1:0.0757282 3:0.0645078 4:0.056129 5:0.266676 6:0.0747905 7:0.0924968 8:0.0692655 9:0.0446891 10:0.0322997 11:0.0831186 12:0.0277062 13:0.113342 14:0.036246 16:0.0815568 17:0.115013 18:0.0699029 19:0.208342 20:0.0403747 22:0.0193299 23:0.0941935 24:0.0944767 25:0.0367268 26:0.108883 29:0.0764249 30:0.0348162 31:0.044143 32:0.0924968 33:0.10703 34:0.108527 35:0.0522918 36:0.35852 37:0.0390507 38:0.0174419 39:0.0530058 40:0.117647 41:0.029854 42:0.150259 43:0.0957447 44:0.0259235 45:0.0511658 46:0.0232708 47:0.0270619 48:0.0150194 49:0.0717982 50:0.0751782 51:0.179288 52:0.162581 53:0.480991 54:0.225515 55:0.226684 56:0.0450421 57:0.0808016 58:0.148646 59:0.0717982 60:0.0747423 61:0.0722581 63:0.0541237 64:0.454275 65:0.0485123 66:0.0425258 67:0.166774 68:0.155813 69:0.0284238 70:0.0774693 71:0.127824 72:0.015023 73:0.19934 74:0.0330525 75:0.0148387 76:0.141935 77:0.168279 78:0.072445 79:0.112113 80:0.0206452 81:0.056129 
-21.22678449066548 5:0.253219 10:0.044843 11:0.189427 13:0.159817 14:0.254545 17:0.262115 18:0.122727 19:0.319885 22:0.132159 25:0.0837004 26:0.761689 28:0.325959 29:0.538813 30:0.159292 31:0.153214 35:0.241071 36:0.539178 40:0.234234 43:0.219027 44:0.0458716 45:0.360731 52:0.373333 53:0.565306 57:0.112613 58:0.179431 63:0.061674 64:0.504164 70:0.178571 71:0.0982143 73:0.168067 78:0.126697 79:0.38326 
-32 1:0.204188 5:0.244645 9:0.363158 10:0.154639 13:0.184211 19:0.360473 22:0.151515 23:0.186224 29:0.310526 34:0.324742 36:0.321276 38:0.139175 41:0.35101 46:0.139896 49:0.192708 52:0.142857 53:0.484701 55:0.184211 57:0.194301 58:0.193392 64:0.489983 71:0.112821 73:0.21982 76:0.22449 77:0.736041 
-32 1:0.153493 2:0.0406025 3:0.0217848 4:0.0664702 5:0.252031 6:0.0759411 7:0.0312568 8:0.0773887 9:0.0528215 10:0.0327654 11:0.0844241 12:0.0492474 13:0.0459318 14:0.1102 15:0.0812316 16:0.124099 17:0.155759 18:0.11512 19:0.199426 21:0.101015 22:0.0490838 23:0.0717092 24:0.0159731 25:0.0248691 26:0.121421 27:0.156731 29:0.0580709 30:0.0176759 31:0.100754 32:0.0255738 33:0.217423 34:0.0344037 35:0.106125 36:0.298579 37:0.0593637 38:0.0353866 39:0.0806293 40:0.264176 41:0.0151614 42:0.114173 43:0.0972177 44:0.0196915 45:0.0518373 46:0.0235988 47:0.059555 48:0.114269 49:0.0121311 50:0.123728 51:0.0454247 52:0.311722 53:0.417101 54:0.065445 55:0.0803806 56:0.0456186 57:0.0614553 58:0.154573 59:0.0121311 60:0.0948953 61:0.0733464 62:0.0393572 63:0.0412304 64:0.425849 65:0.0327869 66:0.0863874 67:0.0704687 68:0.126568 69:0.0432503 70:0.0393056 71:0.0864723 72:0.022874 73:0.180232 74:0.0111585 75:0.0150622 76:0.187295 77:0.104419 78:0.055082 79:0.113874 80:0.0314342 81:0.037983 
